{"learner":{"attributes":{"best_iteration":"9","best_ntree_limit":"10","best_score":"6.045347272862244","scikit_learn":"{\"n_estimators\": 100, \"objective\": \"reg:squarederror\", \"max_depth\": null, \"max_leaves\": null, \"max_bin\": null, \"grow_policy\": null, \"learning_rate\": null, \"verbosity\": null, \"booster\": null, \"tree_method\": \"hist\", \"gamma\": null, \"min_child_weight\": null, \"max_delta_step\": null, \"subsample\": null, \"sampling_method\": null, \"colsample_bytree\": null, \"colsample_bylevel\": null, \"colsample_bynode\": null, \"reg_alpha\": null, \"reg_lambda\": null, \"scale_pos_weight\": null, \"base_score\": null, \"missing\": NaN, \"num_parallel_tree\": null, \"random_state\": null, \"n_jobs\": null, \"monotone_constraints\": null, \"interaction_constraints\": null, \"importance_type\": null, \"gpu_id\": null, \"validate_parameters\": null, \"predictor\": null, \"enable_categorical\": false, \"feature_types\": null, \"max_cat_to_onehot\": null, \"max_cat_threshold\": null, \"eval_metric\": null, \"early_stopping_rounds\": null, \"callbacks\": null, \"evals_result_\": {\"validation_0\": {\"rmse\": [9.961637288835409, 8.189308282704753, 7.161161578020912, 6.600525807150009, 6.311609803079862, 6.176612134879987, 6.108034344006363, 6.0743812480644985, 6.052878666996425, 6.045347272862244, 6.050375019772991, 6.053725438139278, 6.059355523357077, 6.057796331589097, 6.062367672599438]}}, \"_estimator_type\": \"regressor\"}"},"feature_names":[],"feature_types":[],"gradient_booster":{"model":{"gbtree_model_param":{"num_parallel_tree":"1","num_trees":"300","size_leaf_vector":"0"},"tree_info":[0,1,2,3,4,5,6,7,8,9,10,11,12,13,14,15,16,17,18,19,0,1,2,3,4,5,6,7,8,9,10,11,12,13,14,15,16,17,18,19,0,1,2,3,4,5,6,7,8,9,10,11,12,13,14,15,16,17,18,19,0,1,2,3,4,5,6,7,8,9,10,11,12,13,14,15,16,17,18,19,0,1,2,3,4,5,6,7,8,9,10,11,12,13,14,15,16,17,18,19,0,1,2,3,4,5,6,7,8,9,10,11,12,13,14,15,16,17,18,19,0,1,2,3,4,5,6,7,8,9,10,11,12,13,14,15,16,17,18,19,0,1,2,3,4,5,6,7,8,9,10,11,12,13,14,15,16,17,18,19,0,1,2,3,4,5,6,7,8,9,10,11,12,13,14,15,16,17,18,19,0,1,2,3,4,5,6,7,8,9,10,11,12,13,14,15,16,17,18,19,0,1,2,3,4,5,6,7,8,9,10,11,12,13,14,15,16,17,18,19,0,1,2,3,4,5,6,7,8,9,10,11,12,13,14,15,16,17,18,19,0,1,2,3,4,5,6,7,8,9,10,11,12,13,14,15,16,17,18,19,0,1,2,3,4,5,6,7,8,9,10,11,12,13,14,15,16,17,18,19,0,1,2,3,4,5,6,7,8,9,10,11,12,13,14,15,16,17,18,19],"trees":[{"base_weights":[-1.2470316E0],"categories":[],"categories_nodes":[],"categories_segments":[],"categories_sizes":[],"default_left":[0],"id":0,"left_children":[-1],"loss_changes":[0E0],"parents":[2147483647],"right_children":[-1],"split_conditions":[-3.7410948E-1],"split_indices":[0],"split_type":[0],"sum_hessian":[8.1E3],"tree_param":{"num_deleted":"0","num_feature":"10001","num_nodes":"1","size_leaf_vector":"0"}},{"base_weights":[-2.4817581E-1,-2.5405765E-1,-2.403083E-1,-1.4979358E-1,-2.5475252E-1,-2.194354E-1,-2.4709727E-1,-4.682549E-2,-2.562706E-1,-2.510416E-1,-2.7342778E-1,-2.3734641E-1,-1.9270873E-1,-3.0700916E-1,-2.4469784E-1,-7.956218E-2,4.3013602E-2,7.171387E-3,-2.7654257E-1,-2.758722E-1,-2.4685708E-1,-4.2819176E-2,-2.771245E-1,-2.4198054E-1,-6.7361556E-2,-1.9539091E-1,8.9488804E-2,6.266445E-3,-3.136704E-1,-1.8383238E-1,-2.4808581E-1,-1.1561408E-1,2.2874827E-2,-9.856265E-3,-8.748065E-2,-2.7665684E-1,2.2645973E-2,-2.4766327E-1,-1.3153335E-1,-1.1784031E-1,4.6631537E-2,-2.7846023E-1,3.7267037E-2,-2.523108E-1,-1.855563E-1,1.5200303E-1,-1.6094896E-1,-2.1338563E-1,-1.4280368E-1,6.040972E-2,-3.6921296E-2,1.7648587E-2,-1.4828687E-2,-8.0846725E-3,-3.1954667E-1,-2.2710437E-1,-1.01484634E-1,-1.6100961E-1,-2.4980246E-1,1.7221988E-3,-4.2137727E-2,2.3253385E-2,-3.0486325E-3,-8.3231606E-2,2.2180412E-2,-1.5509499E-3,-7.43876E-2,4.7868706E-2,-5.354432E-2,-2.2693188E-3,-6.7981005E-2,-4.362338E-2,-8.448059E-2,2.5551297E-2,-1.596672E-2,-7.0893504E-2,-9.426939E-2,5.388613E-4,-6.544962E-2,5.626165E-2,1.478979E-3,-2.5394084E-3,-6.512175E-2,-5.9413638E-2,-1.0453027E-1,6.316176E-4,-5.9071705E-2,-1.0127247E-1,-5.4790948E-2,-4.9478315E-2,-8.234849E-2,-1.2194651E-2,-8.004786E-2,-6.637424E-2,-6.882326E-3,-9.0858124E-2,-7.3707774E-2],"categories":[],"categories_nodes":[],"categories_segments":[],"categories_sizes":[],"default_left":[0,0,0,0,0,0,0,0,0,0,0,0,0,0,0,0,0,0,0,0,0,0,0,0,0,0,0,0,0,0,0,0,0,0,0,0,0,0,0,0,0,0,0,0,0,0,0,0,0,0,0,0,0,0,0,0,0,0,0,0,0,0,0,0,0,0,0,0,0,0,0,0,0,0,0,0,0,0,0,0,0,0,0,0,0,0,0,0,0,0,0,0,0,0,0,0,0],"id":1,"left_children":[1,3,5,7,9,11,13,15,17,19,21,23,25,27,29,31,-1,-1,33,35,37,39,41,43,45,47,49,51,53,55,57,59,61,-1,-1,63,-1,65,67,69,-1,71,73,75,77,79,81,83,85,-1,-1,-1,-1,-1,87,89,91,93,95,-1,-1,-1,-1,-1,-1,-1,-1,-1,-1,-1,-1,-1,-1,-1,-1,-1,-1,-1,-1,-1,-1,-1,-1,-1,-1,-1,-1,-1,-1,-1,-1,-1,-1,-1,-1,-1,-1],"loss_changes":[3.1381226E-1,2.9641724E-1,4.3946838E-1,3.498032E-1,2.4917603E-1,3.678589E-1,3.01651E-1,1.2348729E-1,9.748602E-2,3.3068848E-1,6.2665176E-1,3.8780785E-1,2.8391552E-1,2.0438576E-1,4.750824E-1,6.173344E-2,0E0,0E0,4.5467377E-2,1.7113876E-1,2.7368164E-1,2.1167257E-1,3.1987762E-1,2.4403763E-1,3.3241117E-1,2.9978275E-1,1.19904414E-1,1.16902515E-2,1.5145111E-1,4.651308E-1,3.1687927E-1,3.6987066E-2,9.812783E-3,0E0,0E0,1.6962051E-1,0E0,2.3295593E-1,3.701357E-1,1.18225336E-1,0E0,2.6586533E-1,2.187221E-2,3.4083557E-1,4.952526E-1,2.5207244E-2,9.230006E-2,4.6548557E-1,7.216824E-1,0E0,0E0,0E0,0E0,0E0,1.6789341E-1,2.1697474E-1,4.8202944E-1,4.024551E-1,4.3608093E-1,0E0,0E0,0E0,0E0,0E0,0E0,0E0,0E0,0E0,0E0,0E0,0E0,0E0,0E0,0E0,0E0,0E0,0E0,0E0,0E0,0E0,0E0,0E0,0E0,0E0,0E0,0E0,0E0,0E0,0E0,0E0,0E0,0E0,0E0,0E0,0E0,0E0,0E0],"parents":[2147483647,0,0,1,1,2,2,3,3,4,4,5,5,6,6,7,7,8,8,9,9,10,10,11,11,12,12,13,13,14,14,15,15,18,18,19,19,20,20,21,21,22,22,23,23,24,24,25,25,26,26,27,27,28,28,29,29,30,30,31,31,32,32,35,35,37,37,38,38,39,39,41,41,42,42,43,43,44,44,45,45,46,46,47,47,48,48,54,54,55,55,56,56,57,57,58,58],"right_children":[2,4,6,8,10,12,14,16,18,20,22,24,26,28,30,32,-1,-1,34,36,38,40,42,44,46,48,50,52,54,56,58,60,62,-1,-1,64,-1,66,68,70,-1,72,74,76,78,80,82,84,86,-1,-1,-1,-1,-1,88,90,92,94,96,-1,-1,-1,-1,-1,-1,-1,-1,-1,-1,-1,-1,-1,-1,-1,-1,-1,-1,-1,-1,-1,-1,-1,-1,-1,-1,-1,-1,-1,-1,-1,-1,-1,-1,-1,-1,-1,-1],"split_conditions":[1.279857E0,2.1631188E0,1.0508842E0,2.763644E-1,2.666353E-1,2.096124E-1,8.491862E-1,1.3916312E0,2.477606E-2,4.547448E-1,1.58368E1,5.4025525E-1,9.008312E-1,1.1497959E0,8.246409E-2,5.6236867E-2,4.3013602E-2,7.171387E-3,2.562383E-3,9.0508044E-1,1.2719563E-1,1.4026103E1,7.822409E0,1.1093035E1,1.4914832E0,5.3091326E0,1.6023505E-1,2.3092808E-2,4.0613225E-1,7.7751015E1,1.1118519E1,3.0881178E-3,1.144674E-2,-9.856265E-3,-8.748065E-2,5.752784E-1,2.2645973E-2,5.54099E-1,2.7629934E1,9.40066E0,4.6631537E-2,2.2284966E0,1.0345265E-1,2.1063818E1,2.3255735E1,1.3469322E-2,9.40697E-1,4.586477E0,8.2392025E0,6.040972E-2,-3.6921296E-2,1.7648587E-2,-1.4828687E-2,-8.0846725E-3,2.4996057E-1,3.1430876E1,3.970302E1,5.7877464E0,2.2083227E1,1.7221988E-3,-4.2137727E-2,2.3253385E-2,-3.0486325E-3,-8.3231606E-2,2.2180412E-2,-1.5509499E-3,-7.43876E-2,4.7868706E-2,-5.354432E-2,-2.2693188E-3,-6.7981005E-2,-4.362338E-2,-8.448059E-2,2.5551297E-2,-1.596672E-2,-7.0893504E-2,-9.426939E-2,5.388613E-4,-6.544962E-2,5.626165E-2,1.478979E-3,-2.5394084E-3,-6.512175E-2,-5.9413638E-2,-1.0453027E-1,6.316176E-4,-5.9071705E-2,-1.0127247E-1,-5.4790948E-2,-4.9478315E-2,-8.234849E-2,-1.2194651E-2,-8.004786E-2,-6.637424E-2,-6.882326E-3,-9.0858124E-2,-7.3707774E-2],"split_indices":[27,117,17,14,5,3,14,72,2,22,687,7,11,21,2,2,0,0,0,28,0,609,86,168,30,82,0,0,13,1245,375,0,0,0,0,23,0,31,1050,423,0,93,0,375,375,0,17,74,127,0,0,0,0,0,2,754,427,166,611,0,0,0,0,0,0,0,0,0,0,0,0,0,0,0,0,0,0,0,0,0,0,0,0,0,0,0,0,0,0,0,0,0,0,0,0,0,0],"split_type":[0,0,0,0,0,0,0,0,0,0,0,0,0,0,0,0,0,0,0,0,0,0,0,0,0,0,0,0,0,0,0,0,0,0,0,0,0,0,0,0,0,0,0,0,0,0,0,0,0,0,0,0,0,0,0,0,0,0,0,0,0,0,0,0,0,0,0,0,0,0,0,0,0,0,0,0,0,0,0,0,0,0,0,0,0,0,0,0,0,0,0,0,0,0,0,0,0],"sum_hessian":[8.1E3,4.617E3,3.483E3,3.2E1,4.585E3,8.63E2,2.62E3,1.7E1,1.5E1,3.837E3,7.48E2,5.12E2,3.51E2,9.6E1,2.524E3,1.5E1,2E0,1E0,1.4E1,5.44E2,3.293E3,1.2E1,7.36E2,4.98E2,1.4E1,3.48E2,3E0,2E0,9.4E1,1.36E2,2.388E3,1.1E1,4E0,1E0,1.3E1,5.43E2,1E0,3.269E3,2.4E1,9E0,3E0,7.33E2,3E0,4.18E2,8E1,4E0,1E1,2.57E2,9.1E1,2E0,1E0,1E0,1E0,2E0,9.2E1,8.8E1,4.8E1,4.8E1,2.34E3,2E0,9E0,1E0,3E0,5.42E2,1E0,4E0,3.265E3,3E0,2.1E1,5E0,4E0,1.8E1,7.15E2,2E0,1E0,3.36E2,8.2E1,1.2E1,6.8E1,3E0,1E0,3E0,7E0,2.33E2,2.4E1,2.5E1,6.6E1,8E1,1.2E1,4E1,4.8E1,3.6E1,1.2E1,3.3E1,1.5E1,1.63E2,2.177E3],"tree_param":{"num_deleted":"0","num_feature":"10001","num_nodes":"97","size_leaf_vector":"0"}},{"base_weights":[-2.523556E-1,-2.394687E-1,-2.5942224E-1,-2.4117847E-1,-1.645174E-2,-5.7062197E-2,-2.5976077E-1,-2.458031E-1,-2.0606191E-1,1.2178505E-1,-1.1401718E-1,-7.809786E-2,2.629457E-2,-2.9524863E-1,-2.5730875E-1,-2.4419357E-1,-3.372431E-1,2.6141305E-3,-2.1708709E-1,-4.694428E-2,2.1091166E-1,-6.821014E-2,-6.2433828E-2,-1.2176578E-2,4.4338893E-2,-2.98282E-1,2.6541516E-2,-2.4028285E-1,-2.6113847E-1,-2.4587713E-1,-1.2629637E-1,4.5732916E-3,-3.464364E-1,-1.3328965E-1,1.24666125E-1,-2.3443328E-1,-1.3050635E-1,1.2059409E-2,2.6111653E-1,-1.9010901E-4,-4.1126482E-2,2.2333622E-2,-3.0447382E-2,-3.070324E-1,-1.938747E-1,3.765718E-2,-4.0560856E-2,-3.1995803E-1,-2.3294283E-1,-2.8541812E-1,-2.5579682E-1,-7.323622E-2,-1.0025019E-1,3.389184E-2,-4.295901E-2,-1.0789319E-1,-4.1297182E-2,-2.0103895E-3,-5.864009E-2,1.2196981E-2,5.2168913E-2,-6.411424E-2,-9.260512E-2,-5.4936777E-3,-5.3682584E-2,1.5448443E-2,8.782258E-2,-6.2697106E-3,6.1699036E-3,1.633206E-3,8.416925E-3,-2.4590106E-3,-1.2764681E-2,-7.872079E-2,-1.0035794E-1,-1.1555258E-2,-6.54488E-2,-1.04247324E-1,-3.269927E-2,-1.4409063E-2,-7.178738E-2,-5.925502E-2,-8.762546E-2,3.0038716E-2,-7.6911926E-2],"categories":[],"categories_nodes":[],"categories_segments":[],"categories_sizes":[],"default_left":[0,0,0,0,0,0,0,0,0,0,0,0,0,0,0,0,0,0,0,0,0,0,0,0,0,0,0,0,0,0,0,0,0,0,0,0,0,0,0,0,0,0,0,0,0,0,0,0,0,0,0,0,0,0,0,0,0,0,0,0,0,0,0,0,0,0,0,0,0,0,0,0,0,0,0,0,0,0,0,0,0,0,0,0,0],"id":2,"left_children":[1,3,5,7,9,11,13,15,17,19,21,-1,23,25,27,29,31,33,35,-1,37,-1,39,41,-1,43,45,47,49,51,53,-1,55,57,59,61,63,-1,65,67,-1,69,71,73,75,-1,-1,77,79,81,83,-1,-1,-1,-1,-1,-1,-1,-1,-1,-1,-1,-1,-1,-1,-1,-1,-1,-1,-1,-1,-1,-1,-1,-1,-1,-1,-1,-1,-1,-1,-1,-1,-1,-1],"loss_changes":[6.7559814E-1,1.0949707E0,3.4277344E-1,4.1381836E-1,3.2408968E-1,1.7627946E-1,3.7750244E-1,2.8881836E-1,7.8050137E-1,2.8101268E-1,6.766218E-2,0E0,3.919414E-2,3.3003235E-1,2.5558472E-1,4.6159363E-1,1.3814259E-1,3.1518862E-1,4.5300007E-1,0E0,5.80689E-2,0E0,5.1088404E-2,5.093704E-3,0E0,2.3921967E-1,8.101058E-2,4.5706177E-1,4.4241333E-1,2.9774475E-1,1.6579515E-1,0E0,6.0791016E-2,6.9528416E-2,3.4288064E-2,3.4478378E-1,3.010375E-1,0E0,2.4701506E-2,3.4387235E-3,0E0,1.3722735E-4,9.975778E-4,2.803383E-1,9.724963E-2,0E0,0E0,3.9194393E-1,9.698868E-1,3.5720825E-1,6.9573975E-1,0E0,0E0,0E0,0E0,0E0,0E0,0E0,0E0,0E0,0E0,0E0,0E0,0E0,0E0,0E0,0E0,0E0,0E0,0E0,0E0,0E0,0E0,0E0,0E0,0E0,0E0,0E0,0E0,0E0,0E0,0E0,0E0,0E0,0E0],"parents":[2147483647,0,0,1,1,2,2,3,3,4,4,5,5,6,6,7,7,8,8,9,9,10,10,12,12,13,13,14,14,15,15,16,16,17,17,18,18,20,20,22,22,23,23,25,25,26,26,27,27,28,28,29,29,30,30,32,32,33,33,34,34,35,35,36,36,38,38,39,39,41,41,42,42,43,43,44,44,47,47,48,48,49,49,50,50],"right_children":[2,4,6,8,10,12,14,16,18,20,22,-1,24,26,28,30,32,34,36,-1,38,-1,40,42,-1,44,46,48,50,52,54,-1,56,58,60,62,64,-1,66,68,-1,70,72,74,76,-1,-1,78,80,82,84,-1,-1,-1,-1,-1,-1,-1,-1,-1,-1,-1,-1,-1,-1,-1,-1,-1,-1,-1,-1,-1,-1,-1,-1,-1,-1,-1,-1,-1,-1,-1,-1,-1,-1],"split_conditions":[1.6319199E0,1.4315001E0,4.8274964E-1,3.8421764E0,1.5539052E0,4.9808987E1,9.1669303E-1,2.8105447E0,4.7227507E0,9.373005E-3,1.2829901E0,-7.809786E-2,6.218698E-2,7.9806304E-1,3.4772678E2,2.5120983E0,1.2021399E0,4.838711E0,1.3202037E-1,-4.694428E-2,1.5281653E-1,-6.821014E-2,6.7526214E-2,1.5395243E-1,4.4338893E-2,3.6956913E0,3.3621842E-1,3.801696E1,3.8011147E1,1.5239235E0,2.6470895E0,4.5732916E-3,1.7809547E0,1.5285028E0,4.1297235E0,4.1998842E-1,7.6589035E1,1.2059409E-2,4.2414702E-2,7.0118204E-2,-4.1126482E-2,2.2168965E-3,5.1273984E-1,3.1179647E0,5.199905E1,3.765718E-2,-4.0560856E-2,1.534091E2,3.6743824E1,1.3784329E0,2.6056783E0,-7.323622E-2,-1.0025019E-1,3.389184E-2,-4.295901E-2,-1.0789319E-1,-4.1297182E-2,-2.0103895E-3,-5.864009E-2,1.2196981E-2,5.2168913E-2,-6.411424E-2,-9.260512E-2,-5.4936777E-3,-5.3682584E-2,1.5448443E-2,8.782258E-2,-6.2697106E-3,6.1699036E-3,1.633206E-3,8.416925E-3,-2.4590106E-3,-1.2764681E-2,-7.872079E-2,-1.0035794E-1,-1.1555258E-2,-6.54488E-2,-1.04247324E-1,-3.269927E-2,-1.4409063E-2,-7.178738E-2,-5.925502E-2,-8.762546E-2,3.0038716E-2,-7.6911926E-2],"split_indices":[50,41,27,112,47,1707,28,82,142,0,37,0,1,21,9700,76,51,152,2,0,6,0,1,10,0,62,5,1436,910,47,83,0,53,50,121,12,2178,0,1,2,0,0,29,88,1435,0,0,5381,1349,39,91,0,0,0,0,0,0,0,0,0,0,0,0,0,0,0,0,0,0,0,0,0,0,0,0,0,0,0,0,0,0,0,0,0,0],"split_type":[0,0,0,0,0,0,0,0,0,0,0,0,0,0,0,0,0,0,0,0,0,0,0,0,0,0,0,0,0,0,0,0,0,0,0,0,0,0,0,0,0,0,0,0,0,0,0,0,0,0,0,0,0,0,0,0,0,0,0,0,0,0,0,0,0,0,0,0,0,0,0,0,0,0,0,0,0,0,0,0,0,0,0,0,0],"sum_hessian":[8.1E3,2.881E3,5.219E3,2.859E3,2.2E1,9E0,5.21E3,2.521E3,3.38E2,9E0,1.3E1,2E0,7E0,3.29E2,4.881E3,2.481E3,4E1,1.7E1,3.21E2,2E0,7E0,3E0,1E1,6E0,1E0,3.26E2,3E0,9.08E2,3.973E3,2.445E3,3.6E1,1E0,3.9E1,8E0,9E0,2.66E2,5.5E1,2E0,5E0,6E0,4E0,2E0,4E0,2.99E2,2.7E1,2E0,1E0,7.3E1,8.35E2,7.07E2,3.266E3,2.401E3,4.4E1,2E0,3.4E1,3.6E1,3E0,3E0,5E0,4E0,5E0,2.11E2,5.5E1,1.7E1,3.8E1,1E0,4E0,3E0,3E0,1E0,1E0,2E0,2E0,1.18E2,1.81E2,4E0,2.3E1,6.4E1,9E0,2.8E1,8.07E2,5.2E1,6.55E2,5E0,3.261E3],"tree_param":{"num_deleted":"0","num_feature":"10001","num_nodes":"85","size_leaf_vector":"0"}},{"base_weights":[-2.5219014E-1,-2.5878364E-1,-2.4510211E-1,-2.5956905E-1,-1.5539831E-1,-2.2238298E-1,-2.5013968E-1,-2.0645645E-1,-2.611688E-1,-2.8910266E-2,-2.66226E-1,-2.2596863E-1,-8.540741E-2,-1.726963E-1,-2.5166366E-1,-2.1605897E-1,1.4043508E-1,-2.593453E-1,-3.007081E-1,-1.368529E-1,1.448439E-1,-3.0183318E-1,-1.984277E-2,-2.218861E-1,-1.0831398E-1,9.920499E-2,-1.7161308E-1,-3.0867434E-1,-1.0540221E-1,-2.9363987E-1,-2.4778675E-1,-6.647232E-2,-2.3780583E-1,2.2543343E-3,5.4671146E-2,-2.606788E-1,-9.716186E-2,-3.3123502E-1,-2.3030153E-1,-1.8614501E-1,5.6641053E-2,1.0682698E-2,6.536036E-2,-7.698452E-2,-9.915102E-2,-2.2328427E-1,7.162476E-2,4.766057E-3,4.080821E-2,-8.913211E-2,-4.0354267E-2,-1.3801951E-2,-9.585222E-2,-2.439311E-1,-2.0561062E-2,-1.8128611E-1,-3.0275345E-1,-1.7434587E-1,-2.5080585E-1,-5.9068084E-2,2.1400433E-2,-7.403176E-2,4.658938E-2,-7.749299E-2,-8.852436E-2,8.836204E-3,-5.7602394E-2,-1.0123309E-1,-2.1444265E-2,7.3620337E-3,-7.688295E-2,-2.6694E-2,-7.382431E-2,-5.589183E-3,3.1077657E-2,-6.729779E-3,-2.7913254E-2,-6.782086E-2,-2.8017614E-2,3.9051645E-2,-1.5602612E-2,-3.3253806E-3,5.4701064E-3,1.4925637E-2,-4.2869605E-2,-8.250529E-3,-8.650333E-2,4.3619275E-3,-7.3072836E-2,-8.301382E-2,3.5791084E-2,-1.08752035E-1,-8.587148E-2,2.916124E-2,-5.544554E-2,-3.0461498E-2,-7.567238E-2],"categories":[],"categories_nodes":[],"categories_segments":[],"categories_sizes":[],"default_left":[0,0,0,0,0,0,0,0,0,0,0,0,0,0,0,0,0,0,0,0,0,0,0,0,0,0,0,0,0,0,0,0,0,0,0,0,0,0,0,0,0,0,0,0,0,0,0,0,0,0,0,0,0,0,0,0,0,0,0,0,0,0,0,0,0,0,0,0,0,0,0,0,0,0,0,0,0,0,0,0,0,0,0,0,0,0,0,0,0,0,0,0,0,0,0,0,0],"id":3,"left_children":[1,3,5,7,9,11,13,15,17,19,21,23,25,27,29,31,33,35,37,39,41,43,-1,45,-1,47,49,51,53,55,57,59,61,-1,-1,63,65,67,69,71,73,-1,-1,75,-1,77,79,81,-1,-1,83,-1,-1,85,87,89,91,93,95,-1,-1,-1,-1,-1,-1,-1,-1,-1,-1,-1,-1,-1,-1,-1,-1,-1,-1,-1,-1,-1,-1,-1,-1,-1,-1,-1,-1,-1,-1,-1,-1,-1,-1,-1,-1,-1,-1],"loss_changes":[3.151245E-1,2.989502E-1,3.9338684E-1,2.9837036E-1,4.6892816E-1,3.3481598E-1,3.3454895E-1,4.5005226E-1,2.1194458E-1,3.3866552E-1,1.08275294E-1,3.0701447E-1,3.3531758E-1,5.622488E-1,4.3806458E-1,3.8431644E-1,2.0856015E-2,8.0752563E-1,2.912464E-1,1.1545843E-1,4.8079297E-2,7.125318E-2,0E0,2.966919E-1,0E0,2.3693934E-2,2.1862102E-1,4.5055866E-2,5.2386713E-1,2.1133995E-1,5.948334E-1,3.19586E-1,4.1548204E-1,0E0,0E0,2.3501587E-1,4.0195313E-1,1.64567E-1,3.703618E-1,3.0516863E-2,1.2532255E-2,0E0,0E0,5.410332E-4,0E0,2.2526169E-1,3.5723753E-2,8.425255E-4,0E0,0E0,8.1028774E-2,0E0,0E0,1.5547991E-1,2.3055385E-1,6.6406643E-1,1.3209152E-1,3.506937E-1,5.666046E-1,0E0,0E0,0E0,0E0,0E0,0E0,0E0,0E0,0E0,0E0,0E0,0E0,0E0,0E0,0E0,0E0,0E0,0E0,0E0,0E0,0E0,0E0,0E0,0E0,0E0,0E0,0E0,0E0,0E0,0E0,0E0,0E0,0E0,0E0,0E0,0E0,0E0,0E0],"parents":[2147483647,0,0,1,1,2,2,3,3,4,4,5,5,6,6,7,7,8,8,9,9,10,10,11,11,12,12,13,13,14,14,15,15,16,16,17,17,18,18,19,19,20,20,21,21,23,23,25,25,26,26,27,27,28,28,29,29,30,30,31,31,32,32,35,35,36,36,37,37,38,38,39,39,40,40,43,43,45,45,46,46,47,47,50,50,53,53,54,54,55,55,56,56,57,57,58,58],"right_children":[2,4,6,8,10,12,14,16,18,20,22,24,26,28,30,32,34,36,38,40,42,44,-1,46,-1,48,50,52,54,56,58,60,62,-1,-1,64,66,68,70,72,74,-1,-1,76,-1,78,80,82,-1,-1,84,-1,-1,86,88,90,92,94,96,-1,-1,-1,-1,-1,-1,-1,-1,-1,-1,-1,-1,-1,-1,-1,-1,-1,-1,-1,-1,-1,-1,-1,-1,-1,-1,-1,-1,-1,-1,-1,-1,-1,-1,-1,-1,-1,-1],"split_conditions":[3.722625E-1,3.6484398E1,1.7965546E-1,2.1789015E2,7.740837E-1,4.0104733E2,4.884098E0,1.0647594E2,4.6896E1,1.0106763E0,3.9608428E-1,1.7553894E1,5.357589E1,5.8180637E0,2.3233537E2,9.895642E-2,1.2052379E-2,4.5376865E1,2.2410439E2,1.6996033E-1,1.1952537E0,3.4238358E1,-1.984277E-2,1.5330826E-1,-1.0831398E-1,7.1574084E-2,1.5079495E1,2.8795484E-1,1.0293628E0,8.71854E1,9.992875E0,9.568373E-2,1.1402841E0,2.2543343E-3,5.4671146E-2,3.866979E-1,1.4994426E2,4.7327384E-1,1.7733167E2,2.5749644E-2,1.7576443E-3,1.0682698E-2,6.536036E-2,1.2028221E-2,-9.915102E-2,1.1326902E1,1.6165216E-1,1.0285434E-2,4.080821E-2,-8.913211E-2,1.7357186E0,-1.3801951E-2,-9.585222E-2,9.0713024E-1,5.463231E0,8.847489E1,4.4958365E-1,7.179435E-1,2.3880322E2,-5.9068084E-2,2.1400433E-2,-7.403176E-2,4.658938E-2,-7.749299E-2,-8.852436E-2,8.836204E-3,-5.7602394E-2,-1.0123309E-1,-2.1444265E-2,7.3620337E-3,-7.688295E-2,-2.6694E-2,-7.382431E-2,-5.589183E-3,3.1077657E-2,-6.729779E-3,-2.7913254E-2,-6.782086E-2,-2.8017614E-2,3.9051645E-2,-1.5602612E-2,-3.3253806E-3,5.4701064E-3,1.4925637E-2,-4.2869605E-2,-8.250529E-3,-8.650333E-2,4.3619275E-3,-7.3072836E-2,-8.301382E-2,3.5791084E-2,-1.08752035E-1,-8.587148E-2,2.916124E-2,-5.544554E-2,-3.0461498E-2,-7.567238E-2],"split_indices":[8,388,3,9923,20,3651,179,4746,748,30,9,167,488,239,7091,7,1,743,2947,5,27,347,0,1,0,2,117,6,31,3342,295,8,39,0,0,9,2480,9,2321,1,0,0,0,0,0,117,1,0,0,0,19,0,0,30,197,3422,9,24,7099,0,0,0,0,0,0,0,0,0,0,0,0,0,0,0,0,0,0,0,0,0,0,0,0,0,0,0,0,0,0,0,0,0,0,0,0,0,0],"split_type":[0,0,0,0,0,0,0,0,0,0,0,0,0,0,0,0,0,0,0,0,0,0,0,0,0,0,0,0,0,0,0,0,0,0,0,0,0,0,0,0,0,0,0,0,0,0,0,0,0,0,0,0,0,0,0,0,0,0,0,0,0,0,0,0,0,0,0,0,0,0,0,0,0,0,0,0,0,0,0,0,0,0,0,0,0,0,0,0,0,0,0,0,0,0,0,0,0],"sum_hessian":[8.1E3,4.178E3,3.922E3,4.145E3,3.3E1,7.2E2,3.202E3,1.25E2,4.02E3,1.6E1,1.7E1,7.01E2,1.9E1,6.4E1,3.138E3,1.22E2,3E0,3.85E3,1.7E2,1E1,6E0,1.4E1,3E0,6.83E2,1.8E1,6E0,1.3E1,2E1,4.4E1,2.59E2,2.879E3,1.6E1,1.06E2,1E0,2E0,3.818E3,3.2E1,1.16E2,5.4E1,8E0,2E0,3E0,3E0,2E0,1.2E1,6.8E2,3E0,2E0,4E0,6E0,7E0,1E0,1.9E1,1.6E1,2.8E1,2.1E1,2.38E2,1.16E2,2.763E3,8E0,8E0,1.04E2,2E0,3.58E3,2.38E2,1.4E1,1.8E1,1.13E2,3E0,5E0,4.9E1,4E0,4E0,1E0,1E0,1E0,1E0,6.65E2,1.5E1,2E0,1E0,1E0,1E0,4E0,3E0,3E0,1.3E1,2.5E1,3E0,1.6E1,5E0,4.7E1,1.91E2,4E0,1.12E2,2.7E1,2.736E3],"tree_param":{"num_deleted":"0","num_feature":"10001","num_nodes":"97","size_leaf_vector":"0"}},{"base_weights":[-2.5024596E-1,-1.2054901E-1,-2.507454E-1,-5.615156E-2,-2.4423923E-1,-2.6873922E-1,-2.4694403E-1,-7.2152436E-2,8.420153E-3,3.7300766E-3,-8.134496E-2,-2.5208908E-1,-2.847939E-1,3.7252467E-2,-2.4720535E-1,7.667821E-2,-8.64872E-2,-2.5609428E-1,-3.925952E-2,-2.873249E-1,-1.2835525E-1,-1.05172515E-1,5.1109303E-2,-3.2154614E-1,-2.4654977E-1,-4.348722E-2,1.2717615E-1,2.4117928E-3,-3.495665E-2,-2.596209E-1,-1.7687554E-2,7.4543856E-2,-2.0342132E-1,-2.7034202E-1,-3.1233776E-1,2.4056941E-2,-2.62431E-1,-4.206997E-2,1.4483929E-6,1.3200063E-2,-3.3617055E-1,-1.4153026E-1,-2.4708696E-1,1.7265559E-3,-1.8545926E-2,5.0047647E-2,1.6456248E-3,7.227427E-3,-6.1421203E-3,-7.856127E-2,-1.2126062E-2,2.710681E-2,-4.9623318E-2,-1.3479111E-2,4.2530812E-2,-1.5499691E-2,-6.70318E-2,-8.8361025E-2,-6.892229E-2,-9.516038E-2,-4.581233E-2,-2.5616731E-2,3.8246624E-2,3.6532404E-3,-9.30686E-2,-2.219647E-2,-1.0350044E-1,-5.9150852E-2,1.4188551E-2,-8.277409E-3,-7.418494E-2],"categories":[],"categories_nodes":[],"categories_segments":[],"categories_sizes":[],"default_left":[0,0,0,0,0,0,0,0,0,0,0,0,0,0,0,0,0,0,0,0,0,0,0,0,0,0,0,0,0,0,0,0,0,0,0,0,0,0,0,0,0,0,0,0,0,0,0,0,0,0,0,0,0,0,0,0,0,0,0,0,0,0,0,0,0,0,0,0,0,0,0],"id":4,"left_children":[1,3,5,7,9,11,13,-1,15,-1,-1,17,19,21,23,25,27,29,31,33,35,37,-1,39,41,43,45,47,-1,49,51,53,55,57,59,61,63,-1,-1,-1,65,67,69,-1,-1,-1,-1,-1,-1,-1,-1,-1,-1,-1,-1,-1,-1,-1,-1,-1,-1,-1,-1,-1,-1,-1,-1,-1,-1,-1,-1],"loss_changes":[4.944458E-1,2.4914163E-1,4.855957E-1,2.7582213E-1,7.935089E-2,3.0137634E-1,5.048523E-1,0E0,1.2323913E-1,0E0,0E0,5.815239E-1,2.4146652E-1,1.5062682E-1,2.456665E-1,7.2279714E-2,2.1641646E-2,5.679779E-1,2.7671415E-1,2.0909119E-1,2.7196538E-1,1.4751051E-2,0E0,3.0881596E-1,3.3813477E-1,3.966736E-3,3.7684575E-2,1.9816905E-3,0E0,3.2035065E-1,1.9051221E-1,7.865519E-2,6.6829324E-3,3.439293E-1,1.6350555E-1,9.012756E-2,9.565726E-2,0E0,0E0,0E0,9.718561E-2,3.8754487E-1,2.7648926E-1,0E0,0E0,0E0,0E0,0E0,0E0,0E0,0E0,0E0,0E0,0E0,0E0,0E0,0E0,0E0,0E0,0E0,0E0,0E0,0E0,0E0,0E0,0E0,0E0,0E0,0E0,0E0,0E0],"parents":[2147483647,0,0,1,1,2,2,3,3,4,4,5,5,6,6,8,8,11,11,12,12,13,13,14,14,15,15,16,16,17,17,18,18,19,19,20,20,21,21,23,23,24,24,25,25,26,26,27,27,29,29,30,30,31,31,32,32,33,33,34,34,35,35,36,36,40,40,41,41,42,42],"right_children":[2,4,6,8,10,12,14,-1,16,-1,-1,18,20,22,24,26,28,30,32,34,36,38,-1,40,42,44,46,48,-1,50,52,54,56,58,60,62,64,-1,-1,-1,66,68,70,-1,-1,-1,-1,-1,-1,-1,-1,-1,-1,-1,-1,-1,-1,-1,-1,-1,-1,-1,-1,-1,-1,-1,-1,-1,-1,-1,-1],"split_conditions":[1.16046936E2,1.0044932E0,1.7618906E0,1.3870424E0,9.146082E-2,3.8558679E0,2.1787565E0,-7.2152436E-2,3.839657E1,3.7300766E-3,-8.134496E-2,1.0064375E1,8.989199E-1,4.51322E-2,8.862592E0,6.7000455E-1,1.1062007E0,3.8788855E0,7.497544E0,1.5824096E0,9.284303E-1,1.2062519E-1,5.1109303E-2,1.3777245E1,2.1962895E0,7.998449E-4,5.9216774E-1,1.7401563E-2,-3.495665E-2,2.6960125E0,2.666209E0,4.097038E0,5.6236867E-2,2.6811993E0,1.446103E2,5.705949E-1,5.6013814E-3,-4.206997E-2,1.4483929E-6,1.3200063E-2,5.212949E0,2.5930058E1,8.774055E0,1.7265559E-3,-1.8545926E-2,5.0047647E-2,1.6456248E-3,7.227427E-3,-6.1421203E-3,-7.856127E-2,-1.2126062E-2,2.710681E-2,-4.9623318E-2,-1.3479111E-2,4.2530812E-2,-1.5499691E-2,-6.70318E-2,-8.8361025E-2,-6.892229E-2,-9.516038E-2,-4.581233E-2,-2.5616731E-2,3.8246624E-2,3.6532404E-3,-9.30686E-2,-2.219647E-2,-1.0350044E-1,-5.9150852E-2,1.4188551E-2,-8.277409E-3,-7.418494E-2],"split_indices":[5521,44,69,76,5,163,94,0,1847,0,0,267,27,1,386,35,53,164,202,66,27,3,0,668,89,0,26,0,0,107,113,180,2,107,2887,15,0,0,0,0,249,780,379,0,0,0,0,0,0,0,0,0,0,0,0,0,0,0,0,0,0,0,0,0,0,0,0,0,0,0,0],"split_type":[0,0,0,0,0,0,0,0,0,0,0,0,0,0,0,0,0,0,0,0,0,0,0,0,0,0,0,0,0,0,0,0,0,0,0,0,0,0,0,0,0,0,0,0,0,0,0,0,0,0,0,0,0,0,0,0,0,0,0,0,0,0,0,0,0,0,0,0,0,0,0],"sum_hessian":[8.1E3,3.2E1,8.068E3,2.2E1,1E1,1.395E3,6.673E3,5E0,1.7E1,1E0,9E0,6.93E2,7.02E2,6E0,6.667E3,1E1,7E0,6.8E2,1.3E1,6.9E2,1.2E1,3E0,3E0,5.4E1,6.613E3,3E0,7E0,2E0,5E0,6.7E2,1E1,8E0,5E0,4.18E2,2.72E2,6E0,6E0,2E0,1E0,2E0,5.2E1,3.5E1,6.578E3,1E0,2E0,5E0,2E0,1E0,1E0,6.63E2,7E0,6E0,4E0,3E0,5E0,1E0,4E0,2.58E2,1.6E2,2.63E2,9E0,3E0,3E0,1E0,5E0,2E0,5E1,2.7E1,8E0,6E0,6.572E3],"tree_param":{"num_deleted":"0","num_feature":"10001","num_nodes":"71","size_leaf_vector":"0"}},{"base_weights":[-1.2478228E0],"categories":[],"categories_nodes":[],"categories_segments":[],"categories_sizes":[],"default_left":[0],"id":5,"left_children":[-1],"loss_changes":[0E0],"parents":[2147483647],"right_children":[-1],"split_conditions":[-3.7434685E-1],"split_indices":[0],"split_type":[0],"sum_hessian":[8.1E3],"tree_param":{"num_deleted":"0","num_feature":"10001","num_nodes":"1","size_leaf_vector":"0"}},{"base_weights":[-2.484872E-1,-2.496293E-1,-1.9061211E-1,-2.2280934E-1,-2.5217503E-1,8.24925E-3,-2.0244107E-1,-2.2540559E-1,6.530701E-2,-2.8135324E-1,-2.505996E-1,-1.801658E-1,4.916608E-2,-2.8530067E-1,-1.8388365E-1,-1.6575462E-1,-2.33836E-1,-2.910407E-2,1.4963797E-1,-2.509922E-1,-3.2003105E-1,5.3064633E-2,-2.5082806E-1,2.8204222E-3,-9.0929024E-2,2.8019778E-2,-3.0418465E-1,1.593149E-2,-1.939235E-1,-1.8889932E-1,3.5978496E-2,-3.0647933E-1,-2.2325213E-1,-7.583553E-3,5.9906013E-2,-2.6007044E-1,-4.523639E-2,-3.2325134E-1,2.6867198E-2,-1.0209084E-2,2.617613E-2,6.4745904E-3,-2.509787E-1,-1.1506449E-2,1.2775639E-2,-3.1528467E-1,-5.6675747E-3,-4.1215423E-2,1.04734935E-1,8.9015864E-2,-1.9942683E-1,2.3129007E-3,-6.5128945E-2,3.66143E-2,-2.2350058E-2,-1.00193314E-1,-6.635251E-2,-1.0472002E-2,-6.7931615E-2,-9.096777E-2,-6.2890425E-2,1.6442444E-2,-6.2701575E-2,-9.831062E-2,3.445205E-3,-9.4011874E-4,-3.653969E-3,-3.183086E-2,3.5068158E-2,-7.3928654E-2,-7.763586E-2,-1.9685904E-2,-9.6986E-2,3.871649E-2,1.1182219E-3,3.2764267E-2,7.2928728E-3,1.1305345E-2,-6.114063E-2],"categories":[],"categories_nodes":[],"categories_segments":[],"categories_sizes":[],"default_left":[0,0,0,0,0,0,0,0,0,0,0,0,0,0,0,0,0,0,0,0,0,0,0,0,0,0,0,0,0,0,0,0,0,0,0,0,0,0,0,0,0,0,0,0,0,0,0,0,0,0,0,0,0,0,0,0,0,0,0,0,0,0,0,0,0,0,0,0,0,0,0,0,0,0,0,0,0,0,0],"id":6,"left_children":[1,3,5,7,9,11,13,15,17,19,21,23,-1,25,27,29,31,-1,33,35,37,39,41,43,-1,-1,45,47,49,51,53,55,57,-1,-1,59,61,63,-1,65,-1,67,69,-1,-1,71,-1,-1,73,75,77,-1,-1,-1,-1,-1,-1,-1,-1,-1,-1,-1,-1,-1,-1,-1,-1,-1,-1,-1,-1,-1,-1,-1,-1,-1,-1,-1,-1],"loss_changes":[4.8788452E-1,4.8602295E-1,3.8039398E-1,5.3608704E-1,2.6254272E-1,3.227716E-1,1.8126202E-1,3.087349E-1,1.1033745E-1,3.4594345E-1,4.908142E-1,1.133282E-1,0E0,2.1434593E-1,2.5786638E-1,4.2234182E-1,3.951912E-1,0E0,4.8819542E-2,3.7675762E-1,2.3471355E-1,1.3870422E-2,2.6828003E-1,6.545365E-3,0E0,0E0,7.321262E-2,1.0969404E-1,2.061615E-1,4.451785E-1,1.0418065E-1,9.971666E-2,3.101902E-1,0E0,0E0,3.695717E-1,1.7529696E-1,2.3468208E-1,0E0,3.664114E-6,0E0,7.4556366E-2,1.8041992E-1,0E0,0E0,2.6733398E-2,0E0,0E0,1.1801496E-2,1.2659319E-3,1.3113451E-1,0E0,0E0,0E0,0E0,0E0,0E0,0E0,0E0,0E0,0E0,0E0,0E0,0E0,0E0,0E0,0E0,0E0,0E0,0E0,0E0,0E0,0E0,0E0,0E0,0E0,0E0,0E0,0E0],"parents":[2147483647,0,0,1,1,2,2,3,3,4,4,5,5,6,6,7,7,8,8,9,9,10,10,11,11,13,13,14,14,15,15,16,16,18,18,19,19,20,20,21,21,22,22,23,23,26,26,27,27,28,28,29,29,30,30,31,31,32,32,35,35,36,36,37,37,39,39,41,41,42,42,45,45,48,48,49,49,50,50],"right_children":[2,4,6,8,10,12,14,16,18,20,22,24,-1,26,28,30,32,-1,34,36,38,40,42,44,-1,-1,46,48,50,52,54,56,58,-1,-1,60,62,64,-1,66,-1,68,70,-1,-1,72,-1,-1,74,76,78,-1,-1,-1,-1,-1,-1,-1,-1,-1,-1,-1,-1,-1,-1,-1,-1,-1,-1,-1,-1,-1,-1,-1,-1,-1,-1,-1,-1],"split_conditions":[3.322082E1,1.2031234E1,3.6639477E1,1.2007196E1,2.3650582E0,8.251161E-1,8.266412E1,3.496456E-1,1.2762891E1,2.5325143E0,9.582991E0,2.3905309E-2,4.916608E-2,6.827411E1,1.4874121E2,3.9207165E1,1.1944713E1,-2.910407E-2,1.946441E-2,2.669482E0,1.837721E-1,2.3427768E0,3.722098E-1,1.909382E-2,-9.0929024E-2,2.8019778E-2,1.6474274E2,2.5041288E-1,4.3187443E1,1.5523039E1,4.8274964E-1,9.400986E0,1.3573694E-1,-7.583553E-3,5.9906013E-2,8.6411E0,1.9320295E0,2.2448885E0,2.6867198E-2,1.9825568E-2,2.617613E-2,2.5749644E-2,5.609992E1,-1.1506449E-2,1.2775639E-2,3.9103973E1,-5.6675747E-3,-4.1215423E-2,1.217043E0,4.64536E-2,6.363944E0,2.3129007E-3,-6.5128945E-2,3.66143E-2,-2.2350058E-2,-1.00193314E-1,-6.635251E-2,-1.0472002E-2,-6.7931615E-2,-9.096777E-2,-6.2890425E-2,1.6442444E-2,-6.2701575E-2,-9.831062E-2,3.445205E-3,-9.4011874E-4,-3.653969E-3,-3.183086E-2,3.5068158E-2,-7.3928654E-2,-7.763586E-2,-1.9685904E-2,-9.6986E-2,3.871649E-2,1.1182219E-3,3.2764267E-2,7.2928728E-3,1.1305345E-2,-6.114063E-2],"split_indices":[153,498,170,497,102,2,423,20,530,114,413,0,0,848,753,1397,574,0,2,118,1,89,26,0,0,0,778,0,205,746,27,453,10,0,0,329,85,92,0,0,0,1,1114,0,0,230,0,0,0,0,55,0,0,0,0,0,0,0,0,0,0,0,0,0,0,0,0,0,0,0,0,0,0,0,0,0,0,0,0],"split_type":[0,0,0,0,0,0,0,0,0,0,0,0,0,0,0,0,0,0,0,0,0,0,0,0,0,0,0,0,0,0,0,0,0,0,0,0,0,0,0,0,0,0,0,0,0,0,0,0,0,0,0,0,0,0,0,0,0,0,0,0,0,0,0,0,0,0,0,0,0,0,0,0,0,0,0,0,0,0,0],"sum_hessian":[8.1E3,7.94E3,1.6E2,6.96E2,7.244E3,9E0,1.51E2,6.9E2,6E0,3.62E2,6.882E3,4E0,5E0,2.5E1,1.26E2,8.8E1,6.02E2,2E0,4E0,2.07E2,1.55E2,5E0,6.877E3,2E0,2E0,1E0,2.4E1,6E0,1.2E2,7.9E1,9E0,7.3E1,5.29E2,1E0,3E0,1.98E2,9E0,1.54E2,1E0,2E0,3E0,4E0,6.873E3,1E0,1E0,2.3E1,1E0,2E0,4E0,2E0,1.18E2,1E1,6.9E1,5E0,4E0,5.3E1,2E1,9E0,5.2E2,1.04E2,9.4E1,6E0,3E0,1.52E2,2E0,1E0,1E0,2E0,2E0,4.363E3,2.51E3,1E0,2.2E1,3E0,1E0,1E0,1E0,2E0,1.16E2],"tree_param":{"num_deleted":"0","num_feature":"10001","num_nodes":"79","size_leaf_vector":"0"}},{"base_weights":[-2.531972E-1,-2.521541E-1,-3.157033E-1,-2.524005E-1,-5.088018E-2,-1.9935192E-1,-3.227684E-1,-2.525764E-1,-1.6363148E-2,5.5709604E-2,-1.6280958E-1,-6.7076236E-2,-8.29069E-2,-2.715444E-2,-3.239595E-1,-1.440874E-1,-2.529963E-1,1.6962326E-1,-5.947763E-2,1.6844139E-2,-6.063304E-2,-4.9420122E-2,1.5882004E-2,-2.2190847E-1,-3.3029178E-1,4.917896E-2,-1.6924755E-1,-2.6895508E-1,-2.511091E-1,7.978901E-3,6.253004E-2,-2.67932E-1,2.8845487E-2,-1.14543185E-1,-3.0222005E-1,-7.6511905E-2,-2.5077874E-2,-7.836698E-2,-1.0217141E-1,-1.8237732E-2,-7.5442925E-2,-8.503039E-2,-2.1586647E-2,5.6123618E-2,-9.539173E-2],"categories":[],"categories_nodes":[],"categories_segments":[],"categories_sizes":[],"default_left":[0,0,0,0,0,0,0,0,0,0,0,0,0,0,0,0,0,0,0,0,0,0,0,0,0,0,0,0,0,0,0,0,0,0,0,0,0,0,0,0,0,0,0,0,0],"id":7,"left_children":[1,3,5,7,9,11,13,15,17,-1,19,21,-1,-1,23,25,27,29,-1,-1,-1,-1,-1,31,33,-1,35,37,39,-1,-1,41,-1,-1,43,-1,-1,-1,-1,-1,-1,-1,-1,-1,-1],"loss_changes":[4.4854736E-1,3.8253784E-1,4.1698456E-2,3.2650757E-1,3.2151496E-1,8.3321184E-2,3.8728714E-3,3.260193E-1,2.7044007E-1,0E0,8.018887E-2,6.7323446E-2,0E0,0E0,3.604889E-3,2.8348678E-1,1.7114258E-1,1.666005E-2,0E0,0E0,0E0,0E0,0E0,1.721445E-1,4.3694496E-2,0E0,2.0648372E-1,3.6730194E-1,4.8120117E-1,0E0,0E0,6.9487095E-3,0E0,0E0,6.452646E-1,0E0,0E0,0E0,0E0,0E0,0E0,0E0,0E0,0E0,0E0],"parents":[2147483647,0,0,1,1,2,2,3,3,4,4,5,5,6,6,7,7,8,8,10,10,11,11,14,14,15,15,16,16,17,17,23,23,24,24,26,26,27,27,28,28,31,31,34,34],"right_children":[2,4,6,8,10,12,14,16,18,-1,20,22,-1,-1,24,26,28,30,-1,-1,-1,-1,-1,32,34,-1,36,38,40,-1,-1,42,-1,-1,44,-1,-1,-1,-1,-1,-1,-1,-1,-1,-1],"split_conditions":[6.3156595E0,4.2385326E1,5.8059645E0,5.539906E0,2.0717114E-1,7.5801296E0,1.2961918E1,7.514501E-1,7.2473207E0,5.5709604E-2,4.128641E1,6.1262943E-2,-8.29069E-2,-2.715444E-2,3.7305224E0,4.7976268E-4,6.094983E-1,2.3121099E-1,-5.947763E-2,1.6844139E-2,-6.063304E-2,-4.9420122E-2,1.5882004E-2,2.5879374E0,1.5594954E1,4.917896E-2,1.08738266E-1,6.2873554E-1,3.8231122E-1,7.978901E-3,6.253004E-2,7.0040092E0,2.8845487E-2,-1.14543185E-1,2.09374E1,-7.6511905E-2,-2.5077874E-2,-7.836698E-2,-1.0217141E-1,-1.8237732E-2,-7.5442925E-2,-8.503039E-2,-2.1586647E-2,5.6123618E-2,-9.539173E-2],"split_indices":[15,92,13,10,2,20,212,46,58,0,89,0,0,0,9,0,27,0,0,0,0,0,0,5,79,0,7,28,21,0,0,11,0,0,173,0,0,0,0,0,0,0,0,0,0],"split_type":[0,0,0,0,0,0,0,0,0,0,0,0,0,0,0,0,0,0,0,0,0,0,0,0,0,0,0,0,0,0,0,0,0,0,0,0,0,0,0,0,0,0,0,0,0],"sum_hessian":[8.1E3,7.972E3,1.28E2,7.962E3,1E1,9E0,1.19E2,7.956E3,6E0,3E0,7E0,4E0,5E0,1E0,1.18E2,3.2E1,7.924E3,3E0,3E0,1E0,6E0,2E0,2E0,9E0,1.09E2,2E0,3E1,8.23E2,7.101E3,1E0,2E0,8E0,1E0,3.4E1,7.5E1,1.4E1,1.6E1,7.47E2,7.6E1,1.4E1,7.087E3,7E0,1E0,2E0,7.3E1],"tree_param":{"num_deleted":"0","num_feature":"10001","num_nodes":"45","size_leaf_vector":"0"}},{"base_weights":[-2.4775456E-1,-1.5557379E-1,-2.4810085E-1,-2.336851E-1,-3.2873772E-2,-3.6831477E-1,-2.4771143E-1,-2.5986794E-1,1.3069013E-3,6.979059E-2,-1.4550821E-1,-3.7558922E-1,-3.0150445E-2,-2.862396E-2,-2.4789864E-1,-2.9199404E-1,-1.9061764E-3,1.0492265E-2,-9.90416E-3,-3.2070652E-3,1.14230596E-1,-4.055044E-3,-4.9576197E-2,-3.8313314E-1,-3.144337E-2,6.794629E-2,-6.366695E-2,-3.3426893E-1,-2.474792E-1,-9.0985395E-2,-1.839519E-2,1.179691E-2,-1.2654689E-2,-1.2100907E-2,6.784445E-3,3.8178224E-2,9.316501E-3,-3.3181578E-2,-1.1725313E-1,-8.877017E-3,2.8011473E-2,-5.1997133E-2,-3.5463673E-1,-1.9831726E-1,-2.4858488E-1,-1.09642506E-1,-3.949631E-2,-6.272374E-2,4.5125183E-2,-8.581774E-2,-7.419919E-2],"categories":[],"categories_nodes":[],"categories_segments":[],"categories_sizes":[],"default_left":[0,0,0,0,0,0,0,0,0,0,0,0,0,0,0,0,0,0,0,0,0,0,0,0,0,0,0,0,0,0,0,0,0,0,0,0,0,0,0,0,0,0,0,0,0,0,0,0,0,0,0],"id":8,"left_children":[1,3,5,7,9,11,13,15,17,19,21,23,-1,25,27,29,31,-1,-1,33,35,-1,-1,37,-1,39,-1,41,43,-1,-1,-1,-1,-1,-1,-1,-1,-1,-1,-1,-1,-1,45,47,49,-1,-1,-1,-1,-1,-1],"loss_changes":[2.199707E-1,3.0859852E-1,2.8652954E-1,1.2339473E-1,1.7204471E-1,9.0096E-3,3.229065E-1,1.4861476E-1,4.6210983E-3,2.6318476E-2,1.6010195E-2,6.8261623E-3,0E0,1.5626153E-1,2.0852661E-1,2.3075223E-2,6.6403933E-3,0E0,0E0,4.747192E-3,1.4668703E-3,0E0,0E0,3.0004978E-3,0E0,1.7642206E-2,0E0,5.6544304E-2,3.857727E-1,0E0,0E0,0E0,0E0,0E0,0E0,0E0,0E0,0E0,0E0,0E0,0E0,0E0,2.6803017E-2,7.107487E-1,2.9699707E-1,0E0,0E0,0E0,0E0,0E0,0E0],"parents":[2147483647,0,0,1,1,2,2,3,3,4,4,5,5,6,6,7,7,8,8,9,9,10,10,11,11,13,13,14,14,15,15,16,16,19,19,20,20,23,23,25,25,27,27,28,28,42,42,43,43,44,44],"right_children":[2,4,6,8,10,12,14,16,18,20,22,24,-1,26,28,30,32,-1,-1,34,36,-1,-1,38,-1,40,-1,42,44,-1,-1,-1,-1,-1,-1,-1,-1,-1,-1,-1,-1,-1,46,48,50,-1,-1,-1,-1,-1,-1],"split_conditions":[6.8194118E0,1.4278799E0,2.8518473E1,1.2045739E0,1.0159414E0,1.1892182E0,4.069675E1,6.702482E0,5.406809E-3,6.2337875E-2,2.1277169E-2,3.3147766E1,-3.0150445E-2,2.1122217E-1,1.082233E1,4.2011875E-1,1.5922608E-2,1.0492265E-2,-9.90416E-3,2.1277169E-2,1.6595708E-2,-4.055044E-3,-4.9576197E-2,6.2465487E0,-3.144337E-2,7.998449E-4,-6.366695E-2,1.7121506E0,3.287911E1,-9.0985395E-2,-1.839519E-2,1.179691E-2,-1.2654689E-2,-1.2100907E-2,6.784445E-3,3.8178224E-2,9.316501E-3,-3.3181578E-2,-1.1725313E-1,-8.877017E-3,2.8011473E-2,-5.1997133E-2,7.3528485E0,1.431987E1,1.3657961E1,-1.09642506E-1,-3.949631E-2,-6.272374E-2,4.5125183E-2,-8.581774E-2,-7.419919E-2],"split_indices":[349,72,1376,59,43,46,1959,343,0,3,2,1572,0,7,530,16,0,0,0,2,0,0,0,321,0,0,0,92,1454,0,0,0,0,0,0,0,0,0,0,0,0,0,345,592,582,0,0,0,0,0,0],"split_type":[0,0,0,0,0,0,0,0,0,0,0,0,0,0,0,0,0,0,0,0,0,0,0,0,0,0,0,0,0,0,0,0,0,0,0,0,0,0,0,0,0,0,0,0,0,0,0,0,0,0,0],"sum_hessian":[8.1E3,3.2E1,8.068E3,1.9E1,1.3E1,2.3E1,8.045E3,1.7E1,2E0,7E0,6E0,2.2E1,1E0,7E0,8.038E3,1.5E1,2E0,1E0,1E0,3E0,4E0,1E0,5E0,2.1E1,1E0,5E0,2E0,3.5E1,8.003E3,1.4E1,1E0,1E0,1E0,1E0,2E0,3E0,1E0,1E0,2E1,1E0,4E0,5E0,3E1,1.8E2,7.823E3,2.8E1,2E0,1.75E2,5E0,2.46E2,7.577E3],"tree_param":{"num_deleted":"0","num_feature":"10001","num_nodes":"51","size_leaf_vector":"0"}},{"base_weights":[-2.5139937E-1,-1.3909034E-1,-2.518275E-1,-1.7105407E-1,3.325541E-2,-3.2675067E-1,-2.5123486E-1,-1.938074E-1,2.4947878E-2,-1.4562977E-2,4.08521E-2,-3.318082E-1,-4.2534964E-3,-1.7499179E-1,-2.521766E-1,-7.590602E-4,-2.3973514E-1,1.8490652E-2,-4.276228E-2,-2.4264178E-1,-3.5415682E-1,-1.9577783E-1,3.3739008E-2,-2.9341698E-1,-2.5128192E-1,6.816226E-2,-2.7720343E-2,-3.0574742E-1,-1.1774685E-1,1.0552437E-3,7.26555E-3,-1.6486686E-2,-2.756341E-3,-2.8449565E-1,5.881709E-3,-3.5892975E-1,-2.1622209E-2,5.9103422E-2,-2.066955E-1,1.437462E-1,-5.0162498E-2,-3.0835745E-1,-1.5676244E-1,-1.2913209E-1,-2.5181937E-1,3.0110212E-2,7.1914317E-3,-4.239002E-2,-1.0228549E-1,-4.0498693E-2,3.03652E-3,-3.1769007E-2,-9.220238E-2,-2.8009059E-2,-1.0888035E-1,-4.5337502E-2,-7.386821E-2,2.051881E-3,4.962721E-2,-7.006441E-2,-1.0289065E-1,4.1594177E-2,-6.070623E-2,1.4960059E-2,-6.621281E-2,-8.317664E-2,-7.508504E-2],"categories":[],"categories_nodes":[],"categories_segments":[],"categories_sizes":[],"default_left":[0,0,0,0,0,0,0,0,0,0,0,0,0,0,0,0,0,0,0,0,0,0,0,0,0,0,0,0,0,0,0,0,0,0,0,0,0,0,0,0,0,0,0,0,0,0,0,0,0,0,0,0,0,0,0,0,0,0,0,0,0,0,0,0,0,0,0],"id":9,"left_children":[1,3,5,7,9,11,13,15,-1,17,-1,19,-1,21,23,25,27,29,31,33,35,37,39,41,43,45,-1,47,49,-1,-1,-1,-1,51,-1,53,-1,-1,55,57,-1,59,61,63,65,-1,-1,-1,-1,-1,-1,-1,-1,-1,-1,-1,-1,-1,-1,-1,-1,-1,-1,-1,-1,-1,-1],"loss_changes":[3.545227E-1,1.8747926E-1,2.7618408E-1,1.7807478E-1,3.1511404E-2,9.0146065E-2,5.310364E-1,2.3034114E-1,0E0,5.4511493E-3,0E0,3.16391E-2,0E0,4.44813E-1,2.1807861E-1,4.4194832E-2,1.3310647E-1,1.721041E-4,7.2323345E-4,1.7021894E-1,3.4716606E-2,4.352486E-1,2.4509206E-1,2.8241253E-1,4.7625732E-1,3.2867305E-3,0E0,2.7083635E-2,2.1216601E-2,0E0,0E0,0E0,0E0,2.049601E-2,0E0,1.2909889E-2,0E0,0E0,1.6050124E-1,1.964344E-2,0E0,2.9534245E-1,2.704838E-1,6.0112655E-1,2.3199463E-1,0E0,0E0,0E0,0E0,0E0,0E0,0E0,0E0,0E0,0E0,0E0,0E0,0E0,0E0,0E0,0E0,0E0,0E0,0E0,0E0,0E0,0E0],"parents":[2147483647,0,0,1,1,2,2,3,3,4,4,5,5,6,6,7,7,9,9,11,11,13,13,14,14,15,15,16,16,17,17,18,18,19,19,20,20,21,21,22,22,23,23,24,24,25,25,27,27,28,28,33,33,35,35,38,38,39,39,41,41,42,42,43,43,44,44],"right_children":[2,4,6,8,10,12,14,16,-1,18,-1,20,-1,22,24,26,28,30,32,34,36,38,40,42,44,46,-1,48,50,-1,-1,-1,-1,52,-1,54,-1,-1,56,58,-1,60,62,64,66,-1,-1,-1,-1,-1,-1,-1,-1,-1,-1,-1,-1,-1,-1,-1,-1,-1,-1,-1,-1,-1,-1],"split_conditions":[2.1315002E-1,1.7267142E-1,6.5789876E0,5.20665E-1,7.0308335E-2,1.2743001E0,9.382121E0,1.17306915E2,2.4947878E-2,1.517253E-2,4.08521E-2,9.213681E1,-4.2534964E-3,1.2230532E1,7.577413E-1,1.0002067E-1,5.54099E-1,3.018928E-4,3.253232E-2,6.1679163E0,7.287278E-2,2.4659898E-2,2.2132933E-1,5.6889634E0,1.9267752E0,2.0697059E-3,-2.7720343E-2,1.6726577E0,2.0979052E-2,1.0552437E-3,7.26555E-3,-1.6486686E-2,-2.756341E-3,4.047344E-1,5.881709E-3,5.18902E-1,-2.1622209E-2,5.9103422E-2,6.150254E1,1.6134408E-3,-5.0162498E-2,1.2397583E2,5.6809134E0,3.4767284E0,2.842149E0,3.0110212E-2,7.1914317E-3,-4.239002E-2,-1.0228549E-1,-4.0498693E-2,3.03652E-3,-3.1769007E-2,-9.220238E-2,-2.8009059E-2,-1.0888035E-1,-4.5337502E-2,-7.386821E-2,2.051881E-3,4.962721E-2,-7.006441E-2,-1.0289065E-1,4.1594177E-2,-6.070623E-2,1.4960059E-2,-6.621281E-2,-8.317664E-2,-7.508504E-2],"split_indices":[16,12,328,27,3,46,442,5177,0,0,0,4332,0,560,40,6,31,0,0,310,0,3,8,167,99,0,0,88,0,0,0,0,0,25,0,34,0,0,2817,0,0,4961,165,169,123,0,0,0,0,0,0,0,0,0,0,0,0,0,0,0,0,0,0,0,0,0,0],"split_type":[0,0,0,0,0,0,0,0,0,0,0,0,0,0,0,0,0,0,0,0,0,0,0,0,0,0,0,0,0,0,0,0,0,0,0,0,0,0,0,0,0,0,0,0,0,0,0,0,0,0,0,0,0,0,0,0,0,0,0,0,0,0,0,0,0,0,0],"sum_hessian":[8.1E3,3.2E1,8.068E3,2.7E1,5E0,5.9E1,8.009E3,2.5E1,2E0,4E0,1E0,5.8E1,1E0,1E2,7.909E3,5E0,2E1,2E0,2E0,1.4E1,4.4E1,9.1E1,9E0,1.61E2,7.748E3,3E0,2E0,1.2E1,8E0,1E0,1E0,1E0,1E0,1.2E1,2E0,4.3E1,1E0,2E0,8.9E1,6E0,3E0,1.44E2,1.7E1,3.5E1,7.713E3,1E0,2E0,3E0,9E0,7E0,1E0,2E0,1E1,1E0,4.2E1,3.9E1,5E1,1E0,5E0,4.8E1,9.6E1,2E0,1.5E1,1.2E1,2.3E1,4.29E2,7.284E3],"tree_param":{"num_deleted":"0","num_feature":"10001","num_nodes":"67","size_leaf_vector":"0"}},{"base_weights":[-1.2510298E0],"categories":[],"categories_nodes":[],"categories_segments":[],"categories_sizes":[],"default_left":[0],"id":10,"left_children":[-1],"loss_changes":[0E0],"parents":[2147483647],"right_children":[-1],"split_conditions":[-3.7530896E-1],"split_indices":[0],"split_type":[0],"sum_hessian":[8.1E3],"tree_param":{"num_deleted":"0","num_feature":"10001","num_nodes":"1","size_leaf_vector":"0"}},{"base_weights":[-2.495693E-1,-1.0651151E-1,-2.5069526E-1,-1.699235E-1,1.3662669E-1,-2.6118872E-1,-2.467326E-1,-9.699737E-2,-2.2896741E-1,-5.1360425E-2,1.7347512E-1,-2.5037524E-1,-2.873229E-1,-1.8710554E-1,-2.483543E-1,-2.3027085E-1,9.355713E-2,-2.6332617E-1,-1.1015475E-1,2.1086907E-1,1.098644E-2,-2.5737303E-1,-2.0583624E-1,2.6712347E-2,-2.893624E-1,-2.1403089E-1,2.4459192E-5,-3.060823E-1,-2.468547E-1,-2.5399357E-1,1.527713E-2,3.904564E-2,5.3757247E-2,-2.9574242E-1,-1.0044573E-1,-1.2978931E-2,-4.2491138E-2,3.3293407E-2,7.1347654E-2,-2.8865877E-1,-2.4920109E-1,6.338233E-2,-2.1515639E-1,5.2344833E-2,-3.8988657E-2,-3.579068E-1,-2.7957827E-1,-1.0055771E-1,-2.7090788E-1,1.5896608E-1,-1.3242893E-1,-5.0698336E-2,-3.2324076E-1,-4.852486E-2,-2.4759854E-1,-8.751124E-2,-2.6037378E-2,-5.193463E-3,2.2896677E-2,-9.297899E-2,-3.7867147E-2,-5.4322244E-3,-3.495104E-2,-8.784574E-2,-2.6287688E-3,-7.50854E-2,3.0561462E-2,-6.1317753E-2,3.925044E-2,-5.3872466E-2,-9.2749044E-2,1.2929428E-2,-1.0917246E-1,-8.4814444E-2,-2.9628534E-2,-8.176546E-2,-6.516154E-3,-9.274401E-2,-5.315315E-2,5.9790563E-2,-4.754186E-4,-6.4025186E-2,7.091464E-3,-3.3136446E-2,3.7665512E-2,-1.9201599E-2,-9.927051E-2,-5.325595E-2,1.1359963E-2,-7.291437E-2,-7.941488E-2],"categories":[],"categories_nodes":[],"categories_segments":[],"categories_sizes":[],"default_left":[0,0,0,0,0,0,0,0,0,0,0,0,0,0,0,0,0,0,0,0,0,0,0,0,0,0,0,0,0,0,0,0,0,0,0,0,0,0,0,0,0,0,0,0,0,0,0,0,0,0,0,0,0,0,0,0,0,0,0,0,0,0,0,0,0,0,0,0,0,0,0,0,0,0,0,0,0,0,0,0,0,0,0,0,0,0,0,0,0,0,0],"id":11,"left_children":[1,3,5,7,9,11,13,15,17,-1,19,21,23,25,27,29,31,33,35,37,-1,39,41,43,45,47,49,51,53,55,-1,57,-1,59,61,-1,-1,-1,-1,63,65,67,69,-1,-1,71,73,75,77,79,81,83,85,87,89,-1,-1,-1,-1,-1,-1,-1,-1,-1,-1,-1,-1,-1,-1,-1,-1,-1,-1,-1,-1,-1,-1,-1,-1,-1,-1,-1,-1,-1,-1,-1,-1,-1,-1,-1,-1],"loss_changes":[1.2781372E0,1.025378E0,2.6974487E-1,2.0169461E-1,1.8850094E-1,5.458374E-1,5.194092E-1,6.5643996E-1,8.529663E-2,0E0,5.8805168E-2,4.3136597E-1,4.1314697E-1,8.0113316E-1,4.173584E-1,1.1299485E-1,4.4351593E-2,8.11733E-2,1.0719597E-2,5.336404E-4,0E0,2.70401E-1,5.556154E-1,1.3843547E-1,3.2177734E-1,8.698654E-1,4.6315122E-1,5.970907E-1,8.074646E-1,6.295663E-2,0E0,1.8127695E-2,0E0,1.7654896E-3,4.5012496E-3,0E0,0E0,0E0,0E0,3.1300735E-1,4.3215942E-1,1.7123827E-1,6.43569E-1,0E0,0E0,1.9617748E-1,2.8683853E-1,6.4493656E-1,2.7496815E-1,6.507528E-2,1.5672024E-1,1.191886E-1,2.3898411E-1,2.518913E-1,3.6679077E-1,0E0,0E0,0E0,0E0,0E0,0E0,0E0,0E0,0E0,0E0,0E0,0E0,0E0,0E0,0E0,0E0,0E0,0E0,0E0,0E0,0E0,0E0,0E0,0E0,0E0,0E0,0E0,0E0,0E0,0E0,0E0,0E0,0E0,0E0,0E0,0E0],"parents":[2147483647,0,0,1,1,2,2,3,3,4,4,5,5,6,6,7,7,8,8,10,10,11,11,12,12,13,13,14,14,15,15,16,16,17,17,18,18,19,19,21,21,22,22,23,23,24,24,25,25,26,26,27,27,28,28,29,29,31,31,33,33,34,34,39,39,40,40,41,41,42,42,45,45,46,46,47,47,48,48,49,49,50,50,51,51,52,52,53,53,54,54],"right_children":[2,4,6,8,10,12,14,16,18,-1,20,22,24,26,28,30,32,34,36,38,-1,40,42,44,46,48,50,52,54,56,-1,58,-1,60,62,-1,-1,-1,-1,64,66,68,70,-1,-1,72,74,76,78,80,82,84,86,88,90,-1,-1,-1,-1,-1,-1,-1,-1,-1,-1,-1,-1,-1,-1,-1,-1,-1,-1,-1,-1,-1,-1,-1,-1,-1,-1,-1,-1,-1,-1,-1,-1,-1,-1,-1,-1],"split_conditions":[9.677543E0,2.4390118E0,3.3019215E1,1.2460982E0,2.0315258E-1,3.2180695E1,3.7080193E0,1.4741651E0,7.772662E0,-5.1360425E-2,2.3534276E0,2.2417425E1,1.250335E1,1.7284407E1,1.9741418E2,2.2999208E0,4.588318E-1,1.655118E0,3.014821E1,2.1317213E0,1.098644E-2,7.764433E-2,4.3236603E1,9.7778566E-2,1.2000806E0,1.2804283E2,2.0663077E-1,3.334818E1,8.968802E1,1.1189948E0,1.527713E-2,8.815262E-3,5.3757247E-2,1.0420964E1,4.7976268E-4,-1.2978931E-2,-4.2491138E-2,3.3293407E-2,7.1347654E-2,1.6433831E0,2.9409826E1,1.3908361E0,1.55542E1,5.2344833E-2,-3.8988657E-2,3.3972202E1,8.71897E0,1.8794193E2,8.213462E0,2.9087513E1,1.178453E0,2.8920267E1,2.8322504E1,1.2911206E2,2.9721541E0,-8.751124E-2,-2.6037378E-2,-5.193463E-3,2.2896677E-2,-9.297899E-2,-3.7867147E-2,-5.4322244E-3,-3.495104E-2,-8.784574E-2,-2.6287688E-3,-7.50854E-2,3.0561462E-2,-6.1317753E-2,3.925044E-2,-5.3872466E-2,-9.2749044E-2,1.2929428E-2,-1.0917246E-1,-8.4814444E-2,-2.9628534E-2,-8.176546E-2,-6.516154E-3,-9.274401E-2,-5.315315E-2,5.9790563E-2,-4.754186E-4,-6.4025186E-2,7.091464E-3,-3.3136446E-2,3.7665512E-2,-1.9201599E-2,-9.927051E-2,-5.325595E-2,1.1359963E-2,-7.291437E-2,-7.941488E-2],"split_indices":[473,115,1066,64,12,1133,149,80,379,0,105,808,561,391,6498,114,22,77,1432,98,0,4,1693,3,53,3823,10,1071,2949,61,0,0,0,511,0,0,0,0,0,47,1030,64,516,0,0,1212,172,6253,268,506,44,922,933,4268,28,0,0,0,0,0,0,0,0,0,0,0,0,0,0,0,0,0,0,0,0,0,0,0,0,0,0,0,0,0,0,0,0,0,0,0,0],"split_type":[0,0,0,0,0,0,0,0,0,0,0,0,0,0,0,0,0,0,0,0,0,0,0,0,0,0,0,0,0,0,0,0,0,0,0,0,0,0,0,0,0,0,0,0,0,0,0,0,0,0,0,0,0,0,0,0,0,0,0,0,0,0,0,0,0,0,0,0,0,0,0,0,0,0,0,0,0,0,0,0,0,0,0,0,0,0,0,0,0,0,0],"sum_hessian":[8.1E3,6.4E1,8.036E3,5.1E1,1.3E1,2.185E3,5.851E3,2.4E1,2.7E1,1E0,1.2E1,1.553E3,6.32E2,1.58E2,5.693E3,1.4E1,1E1,2E1,7E0,9E0,3E0,1.338E3,2.15E2,4E0,6.28E2,1.38E2,2E1,1.39E2,5.554E3,1.3E1,1E0,7E0,3E0,1.6E1,4E0,3E0,4E0,3E0,6E0,2.7E2,1.068E3,7E0,2.08E2,2E0,2E0,7.4E1,5.54E2,4.7E1,9.1E1,9E0,1.1E1,9E0,1.3E2,2.1E1,5.533E3,1E1,3E0,3E0,4E0,1.4E1,2E0,1E0,3E0,2.66E2,4E0,1.065E3,3E0,1E0,6E0,1.53E2,5.5E1,1E0,7.3E1,5.44E2,1E1,1.4E1,3.3E1,6.3E1,2.8E1,7E0,2E0,7E0,4E0,7E0,2E0,4E0,1.26E2,8E0,1.3E1,4.383E3,1.15E3],"tree_param":{"num_deleted":"0","num_feature":"10001","num_nodes":"91","size_leaf_vector":"0"}},{"base_weights":[-2.502341E-1,-2.4412066E-1,-2.5952575E-1,-3.3401516E-1,-2.4291918E-1,-2.6495385E-1,-2.303184E-1,-3.4548384E-1,-8.134865E-2,7.705176E-2,-2.4346465E-1,-2.627684E-1,-1.13945164E-1,-1.8154593E-1,-2.5928614E-1,-2.4285997E-1,-3.6147115E-1,3.0556727E-2,-5.291061E-2,1.4177348E-1,-2.9894855E-2,-1.7407098E-1,-2.4487878E-1,-6.3485265E-2,-2.6357684E-1,-1.9653273E-1,8.428415E-2,-2.997172E-1,-2.1722433E-1,2.5442615E-2,-1.0399614E-1,-1.1374848E-1,-2.2341241E-1,1.788717E-2,4.8812564E-2,-4.7412187E-2,-2.0514303E-1,-3.53236E-1,-2.4378712E-1,-7.262352E-2,2.2943385E-2,-2.642106E-1,-7.0911214E-2,-1.8089461E-1,-3.484497E-1,-5.4775126E-2,6.2154777E-2,6.205555E-2,-3.0707216E-1,-7.0792206E-2,-2.479824E-1,-1.370717E-2,1.931516E-2,4.0065945E-4,-7.671301E-2,-4.080575E-2,1.909722E-2,-9.900072E-2,-4.8252765E-2,-1.2071119E-1,-4.230831E-2,1.1296775E-2,-7.322864E-2,-9.461698E-3,2.9679332E-2,-8.549334E-2,-7.719782E-2,9.24337E-3,-6.935931E-2,-6.914243E-2,-3.9625388E-2,-3.938511E-2,-1.11028805E-1,4.7718406E-2,-6.9900486E-3,-8.175699E-2,-1.1441933E-1,-5.604515E-2,6.2339548E-2,-8.500184E-2,-3.233987E-2],"categories":[],"categories_nodes":[],"categories_segments":[],"categories_sizes":[],"default_left":[0,0,0,0,0,0,0,0,0,0,0,0,0,0,0,0,0,0,0,0,0,0,0,0,0,0,0,0,0,0,0,0,0,0,0,0,0,0,0,0,0,0,0,0,0,0,0,0,0,0,0,0,0,0,0,0,0,0,0,0,0,0,0,0,0,0,0,0,0,0,0,0,0,0,0,0,0,0,0,0,0],"id":12,"left_children":[1,3,5,7,9,11,13,15,17,19,21,23,-1,25,27,29,31,-1,-1,33,-1,35,37,39,41,43,45,47,49,51,-1,-1,53,-1,-1,55,57,59,61,-1,63,65,67,69,71,-1,-1,73,75,77,79,-1,-1,-1,-1,-1,-1,-1,-1,-1,-1,-1,-1,-1,-1,-1,-1,-1,-1,-1,-1,-1,-1,-1,-1,-1,-1,-1,-1,-1,-1],"loss_changes":[3.9682007E-1,4.484558E-1,4.4613647E-1,1.5155554E-1,8.6383057E-1,5.757141E-1,6.720581E-1,9.013653E-3,8.7596536E-2,1.1705534E-1,4.3173218E-1,4.0924072E-1,0E0,7.854662E-1,4.7398376E-1,3.1514937E-1,3.4964085E-2,0E0,0E0,2.3373216E-3,0E0,3.838284E-1,4.7399902E-1,1.9078086E-1,3.027954E-1,3.7171936E-1,3.9860225E-1,4.4212723E-1,6.98576E-1,1.4021794E-2,0E0,0E0,5.8412135E-2,0E0,0E0,2.1533096E-1,3.8942814E-1,4.1245985E-1,4.1625977E-1,0E0,4.038011E-2,3.0181885E-1,1.7017081E-1,3.7611914E-1,2.6625872E-2,0E0,0E0,3.682615E-2,2.9664707E-1,9.76201E-1,6.187525E-1,0E0,0E0,0E0,0E0,0E0,0E0,0E0,0E0,0E0,0E0,0E0,0E0,0E0,0E0,0E0,0E0,0E0,0E0,0E0,0E0,0E0,0E0,0E0,0E0,0E0,0E0,0E0,0E0,0E0,0E0],"parents":[2147483647,0,0,1,1,2,2,3,3,4,4,5,5,6,6,7,7,8,8,9,9,10,10,11,11,13,13,14,14,15,15,16,16,19,19,21,21,22,22,23,23,24,24,25,25,26,26,27,27,28,28,29,29,32,32,35,35,36,36,37,37,38,38,40,40,41,41,42,42,43,43,44,44,47,47,48,48,49,49,50,50],"right_children":[2,4,6,8,10,12,14,16,18,20,22,24,-1,26,28,30,32,-1,-1,34,-1,36,38,40,42,44,46,48,50,52,-1,-1,54,-1,-1,56,58,60,62,-1,64,66,68,70,72,-1,-1,74,76,78,80,-1,-1,-1,-1,-1,-1,-1,-1,-1,-1,-1,-1,-1,-1,-1,-1,-1,-1,-1,-1,-1,-1,-1,-1,-1,-1,-1,-1,-1,-1],"split_conditions":[3.4968563E1,2.4749916E0,1.3578542E2,9.0927476E-1,3.5482285E0,8.276428E2,1.1311884E2,9.22263E0,5.406809E-3,2.7918667E-2,1.4992194E0,3.018928E-4,-1.13945164E-1,1.0651708E2,1.9504944E0,8.8017124E-1,4.7129025E0,3.0556727E-2,-5.291061E-2,2.2115473E-1,-2.9894855E-2,7.889985E0,3.645033E1,1.8603975E1,4.7766965E2,5.8984154E1,1.718158E1,4.027322E0,5.988695E0,8.815262E-3,-1.0399614E-1,-1.1374848E-1,3.0856306E-2,1.788717E-2,4.8812564E-2,6.172806E0,1.5408596E1,4.7232037E0,8.162079E1,-7.262352E-2,1.9179891E-1,1.8884785E-2,3.1666486E2,1.2719563E-1,9.373005E-3,-5.4775126E-2,6.2154777E-2,2.3697193E0,3.2775998E0,8.219968E0,7.3138E2,-1.370717E-2,1.931516E-2,4.0065945E-4,-7.671301E-2,-4.080575E-2,1.909722E-2,-9.900072E-2,-4.8252765E-2,-1.2071119E-1,-4.230831E-2,1.1296775E-2,-7.322864E-2,-9.461698E-3,2.9679332E-2,-8.549334E-2,-7.719782E-2,9.24337E-3,-6.935931E-2,-6.914243E-2,-3.9625388E-2,-3.938511E-2,-1.11028805E-1,4.7718406E-2,-6.9900486E-3,-8.175699E-2,-1.1441933E-1,-5.604515E-2,6.2339548E-2,-8.500184E-2,-3.233987E-2],"split_indices":[763,130,1188,37,188,7274,781,463,0,0,77,0,0,734,7,50,207,0,0,11,0,373,1725,405,4200,384,116,88,29,0,0,0,2,0,0,304,675,216,3902,0,3,0,2788,0,0,0,0,63,16,41,1982,0,0,0,0,0,0,0,0,0,0,0,0,0,0,0,0,0,0,0,0,0,0,0,0,0,0,0,0,0,0],"split_type":[0,0,0,0,0,0,0,0,0,0,0,0,0,0,0,0,0,0,0,0,0,0,0,0,0,0,0,0,0,0,0,0,0,0,0,0,0,0,0,0,0,0,0,0,0,0,0,0,0,0,0,0,0,0,0,0,0,0,0,0,0,0,0,0,0,0,0,0,0,0,0,0,0,0,0,0,0,0,0,0,0],"sum_hessian":[8.1E3,4.902E3,3.198E3,6.1E1,4.841E3,2.69E3,5.08E2,5.8E1,3E0,8E0,4.833E3,2.643E3,4.7E1,1.92E2,3.16E2,1E1,4.8E1,1E0,2E0,6E0,2E0,9.9E1,4.734E3,1.1E1,2.632E3,1.82E2,1E1,1.58E2,1.58E2,3E0,7E0,4.1E1,7E0,2E0,4E0,2E1,7.9E1,4.4E1,4.69E3,3E0,8E0,2.623E3,9E0,1.67E2,1.5E1,3E0,7E0,3E0,1.55E2,2.8E1,1.3E2,1E0,2E0,1E0,6E0,1.1E1,9E0,1.9E1,6E1,3.5E1,9E0,5E0,4.685E3,5E0,3E0,6.43E2,1.98E3,6E0,3E0,8.1E1,8.6E1,2E0,1.3E1,1E0,2E0,1.09E2,4.6E1,2E1,8E0,1.03E2,2.7E1],"tree_param":{"num_deleted":"0","num_feature":"10001","num_nodes":"81","size_leaf_vector":"0"}},{"base_weights":[-2.4675237E-1,-2.9045397E-1,-2.4530077E-1,-3.1741643E-1,-2.3178738E-1,-1.2614962E-1,-2.4594113E-1,-3.5416895E-1,-2.7469748E-1,-2.3103664E-2,-2.629164E-1,-1.8892619E-1,1.3897322E-1,-1.5140757E-1,-2.4670324E-1,-3.6361828E-1,-1.6284995E-1,-6.948571E-2,-2.983964E-1,-1.5651032E-1,1.3638805E-1,-9.8629735E-2,-2.9047322E-1,-2.2352228E-1,4.3116935E-2,5.84793E-2,2.0293236E-2,4.9379468E-2,-1.845587E-1,-9.6285835E-2,-2.4706092E-1,-3.6669752E-1,-1.6206399E-2,2.7122201E-2,-9.362413E-2,5.7207618E-2,-8.214828E-2,-3.1979784E-1,-1.5938914E-1,-6.864257E-2,-1.3525353E-2,-4.402632E-3,5.0860755E-2,-2.4868993E-1,9.287878E-2,-6.1229594E-2,-3.0522743E-1,-5.990851E-2,-2.6526797E-1,-8.8570565E-3,1.4021999E-2,-5.550167E-2,9.5978424E-2,-2.3865083E-1,-6.666081E-2,6.1883118E-2,-2.0688874E-1,-2.7556735E-1,-2.4515E-1,-1.1090479E-1,-1.8287834E-2,3.6431294E-2,-6.3972925E-3,-1.0113359E-1,-5.295973E-2,8.703065E-3,-5.9991013E-2,-9.771759E-2,-3.2844625E-2,1.0000531E-2,5.8589578E-2,4.6849907E-3,-3.529979E-2,-9.4871245E-2,6.1078963E-4,-5.672108E-2,1.662078E-2,-4.9197424E-2,-1.0210884E-1,-6.239143E-3,3.9694168E-2,-8.743441E-2,-3.81971E-2,2.7773237E-2,-4.418302E-2,4.729106E-2,-3.6799673E-3,-8.518317E-2,3.5677403E-2,-7.219547E-2,-9.32393E-2,-4.4906914E-2,-7.3761836E-2],"categories":[],"categories_nodes":[],"categories_segments":[],"categories_sizes":[],"default_left":[0,0,0,0,0,0,0,0,0,0,0,0,0,0,0,0,0,0,0,0,0,0,0,0,0,0,0,0,0,0,0,0,0,0,0,0,0,0,0,0,0,0,0,0,0,0,0,0,0,0,0,0,0,0,0,0,0,0,0,0,0,0,0,0,0,0,0,0,0,0,0,0,0,0,0,0,0,0,0,0,0,0,0,0,0,0,0,0,0,0,0,0,0],"id":13,"left_children":[1,3,5,7,9,11,13,15,17,19,21,23,25,27,29,31,33,35,37,39,41,43,45,47,-1,-1,49,51,53,55,57,59,-1,-1,-1,61,-1,63,65,-1,-1,-1,-1,67,69,71,73,75,77,-1,-1,-1,79,81,83,85,87,89,91,-1,-1,-1,-1,-1,-1,-1,-1,-1,-1,-1,-1,-1,-1,-1,-1,-1,-1,-1,-1,-1,-1,-1,-1,-1,-1,-1,-1,-1,-1,-1,-1,-1,-1],"loss_changes":[4.4262695E-1,3.297844E-1,5.67688E-1,1.727562E-1,5.395994E-1,7.585695E-1,5.2490234E-1,1.0168266E-1,3.8778257E-1,2.7667323E-1,3.0183792E-1,4.464265E-1,5.5813834E-2,4.417739E-1,3.9263916E-1,6.0269356E-2,2.5497657E-1,2.7455258E-1,1.7214918E-1,4.6075508E-2,3.2532543E-2,3.6795163E-1,1.9101429E-1,2.0950401E-1,0E0,0E0,6.6498965E-3,1.2697752E-1,3.4122276E-1,3.626818E-1,3.5302734E-1,5.3215027E-2,0E0,0E0,0E0,3.789832E-2,0E0,9.924173E-2,9.754613E-2,0E0,0E0,0E0,0E0,3.940642E-2,3.0080412E-2,2.3522157E-2,1.9685698E-1,1.2962526E-1,1.4192224E-1,0E0,0E0,0E0,4.0939607E-2,1.8624687E-1,2.575402E-1,6.5834634E-2,3.350352E-1,5.119629E-1,4.6307373E-1,0E0,0E0,0E0,0E0,0E0,0E0,0E0,0E0,0E0,0E0,0E0,0E0,0E0,0E0,0E0,0E0,0E0,0E0,0E0,0E0,0E0,0E0,0E0,0E0,0E0,0E0,0E0,0E0,0E0,0E0,0E0,0E0,0E0,0E0],"parents":[2147483647,0,0,1,1,2,2,3,3,4,4,5,5,6,6,7,7,8,8,9,9,10,10,11,11,12,12,13,13,14,14,15,15,16,16,17,17,18,18,19,19,20,20,21,21,22,22,23,23,26,26,27,27,28,28,29,29,30,30,31,31,35,35,37,37,38,38,43,43,44,44,45,45,46,46,47,47,48,48,52,52,53,53,54,54,55,55,56,56,57,57,58,58],"right_children":[2,4,6,8,10,12,14,16,18,20,22,24,26,28,30,32,34,36,38,40,42,44,46,48,-1,-1,50,52,54,56,58,60,-1,-1,-1,62,-1,64,66,-1,-1,-1,-1,68,70,72,74,76,78,-1,-1,-1,80,82,84,86,88,90,92,-1,-1,-1,-1,-1,-1,-1,-1,-1,-1,-1,-1,-1,-1,-1,-1,-1,-1,-1,-1,-1,-1,-1,-1,-1,-1,-1,-1,-1,-1,-1,-1,-1,-1],"split_conditions":[1.5975007E0,1.272447E-1,6.5811424E0,8.710535E1,4.0340045E-1,6.3052506E0,1.8877734E-1,3.5606135E-2,4.772629E1,8.005038E-1,1.115813E-1,4.2505303E-1,3.3107367E-1,1.5774322E0,4.2364088E-1,8.189702E-2,7.0308335E-2,1.9217448E-1,1.3750688E0,3.463195E-2,1.5003942E-1,6.048794E1,6.596209E-1,5.485685E1,4.3116935E-2,5.84793E-2,4.5504924E-2,5.3475123E-2,4.788253E-1,2.1439533E0,3.2158283E1,1.9203113E0,-1.6206399E-2,2.7122201E-2,-9.362413E-2,1.0631862E-1,-8.214828E-2,1.5616745E-1,1.2508893E0,-6.864257E-2,-1.3525353E-2,-4.402632E-3,5.0860755E-2,6.759967E-2,3.6311623E-2,5.070989E-2,7.457592E-1,1.2886013E0,6.225995E-1,-8.8570565E-3,1.4021999E-2,-5.550167E-2,2.5599247E-1,2.7654022E-2,3.9347985E-1,1.3504341E-1,1.2498271E-1,2.3537479E2,2.5761492E1,-1.1090479E-1,-1.8287834E-2,3.6431294E-2,-6.3972925E-3,-1.0113359E-1,-5.295973E-2,8.703065E-3,-5.9991013E-2,-9.771759E-2,-3.2844625E-2,1.0000531E-2,5.8589578E-2,4.6849907E-3,-3.529979E-2,-9.4871245E-2,6.1078963E-4,-5.672108E-2,1.662078E-2,-4.9197424E-2,-1.0210884E-1,-6.239143E-3,3.9694168E-2,-8.743441E-2,-3.81971E-2,2.7773237E-2,-4.418302E-2,4.729106E-2,-3.6799673E-3,-8.518317E-2,3.5677403E-2,-7.219547E-2,-9.32393E-2,-4.4906914E-2,-7.3761836E-2],"split_indices":[79,5,323,3457,22,310,13,0,1860,45,4,11,12,75,27,2,3,11,68,1,7,2629,38,2640,0,0,1,5,24,92,1304,90,0,0,0,8,0,7,61,0,0,0,0,3,1,1,30,62,27,0,0,0,19,1,20,8,5,9865,1047,0,0,0,0,0,0,0,0,0,0,0,0,0,0,0,0,0,0,0,0,0,0,0,0,0,0,0,0,0,0,0,0,0,0],"split_type":[0,0,0,0,0,0,0,0,0,0,0,0,0,0,0,0,0,0,0,0,0,0,0,0,0,0,0,0,0,0,0,0,0,0,0,0,0,0,0,0,0,0,0,0,0,0,0,0,0,0,0,0,0,0,0,0,0,0,0,0,0,0,0,0,0,0,0,0,0,0,0,0,0,0,0,0,0,0,0,0,0,0,0,0,0,0,0,0,0,0,0,0,0],"sum_hessian":[8.1E3,2.54E2,7.846E3,1.71E2,8.3E1,4.3E1,7.803E3,8.8E1,8.3E1,1.1E1,7.2E1,3.5E1,8E0,6.4E1,7.739E3,8.3E1,5E0,9E0,7.4E1,6E0,5E0,1.1E1,6.1E1,3.2E1,3E0,5E0,3E0,9E0,5.5E1,1.9E1,7.72E3,8.2E1,1E0,2E0,3E0,6E0,3E0,6.3E1,1.1E1,3E0,3E0,1E0,4E0,6E0,5E0,4E0,5.7E1,7E0,2.5E1,1E0,2E0,1E0,8E0,3.7E1,1.8E1,8E0,1.1E1,4.76E2,7.244E3,8.1E1,1E0,3E0,3E0,5.5E1,8E0,2E0,9E0,3E0,3E0,4E0,1E0,2E0,2E0,5.5E1,2E0,3E0,4E0,1.2E1,1.3E1,2E0,6E0,2.4E1,1.3E1,6E0,1.2E1,3E0,5E0,9E0,2E0,2.43E2,2.33E2,5.6E1,7.188E3],"tree_param":{"num_deleted":"0","num_feature":"10001","num_nodes":"93","size_leaf_vector":"0"}},{"base_weights":[-2.5219014E-1,-3.0377835E-1,-2.5111908E-1,-1.9513454E-1,-3.2734898E-1,5.781921E-3,-2.5147614E-1,-2.4734414E-1,1.9204706E-2,-1.4059116E-1,-3.4514984E-1,6.101129E-2,-1.1843397E-1,7.253259E-2,-2.5168967E-1,-2.8934184E-1,4.5479283E-2,5.301701E-2,-2.755037E-2,-2.6537055E-1,4.272682E-3,-3.4874883E-1,1.1390064E-2,-4.751871E-2,-1.8833341E-2,-1.9133547E-2,3.3765152E-2,4.7710247E-2,-2.518134E-1,-1.5728125E-1,-1.10600956E-1,3.2022167E-2,-2.074568E-2,-3.8413347E-3,2.062266E-2,-9.345719E-2,1.7325104E-3,-3.8694613E-2,4.093777E-2,-1.1093556E-1,-3.5403398E-1,-2.866738E-1,-2.505415E-1,-8.453141E-2,7.068946E-3,-6.527308E-2,3.1348273E-2,-6.4682476E-2,-1.1001721E-1,-6.95444E-2,-9.4727054E-2,-2.6770705E-2,-7.529846E-2],"categories":[],"categories_nodes":[],"categories_segments":[],"categories_sizes":[],"default_left":[0,0,0,0,0,0,0,0,0,0,0,0,0,0,0,0,0,0,0,0,0,0,0,0,0,0,0,0,0,0,0,0,0,0,0,0,0,0,0,0,0,0,0,0,0,0,0,0,0,0,0,0,0],"id":14,"left_children":[1,3,5,7,9,11,13,15,17,19,21,-1,23,25,27,29,31,33,-1,35,37,39,-1,-1,-1,-1,-1,-1,41,43,-1,-1,-1,-1,-1,-1,-1,-1,-1,45,47,49,51,-1,-1,-1,-1,-1,-1,-1,-1,-1,-1],"loss_changes":[3.713379E-1,3.4585094E-1,7.2991943E-1,3.5165763E-1,3.8365364E-1,3.1861043E-1,5.670166E-1,3.2060695E-1,3.1150244E-2,2.3612213E-1,1.7594433E-1,0E0,7.849194E-3,3.990761E-2,4.4284058E-1,1.724894E-1,3.547125E-2,7.090533E-3,0E0,8.93991E-2,1.4090216E-1,1.077795E-1,0E0,0E0,0E0,0E0,0E0,0E0,2.7954102E-1,2.3177287E-1,0E0,0E0,0E0,0E0,0E0,0E0,0E0,0E0,0E0,1.14630446E-1,1.2118721E-1,3.607731E-1,5.3723145E-1,0E0,0E0,0E0,0E0,0E0,0E0,0E0,0E0,0E0,0E0],"parents":[2147483647,0,0,1,1,2,2,3,3,4,4,5,5,6,6,7,7,8,8,9,9,10,10,12,12,13,13,14,14,15,15,16,16,17,17,19,19,20,20,21,21,28,28,29,29,39,39,40,40,41,41,42,42],"right_children":[2,4,6,8,10,12,14,16,18,20,22,-1,24,26,28,30,32,34,-1,36,38,40,-1,-1,-1,-1,-1,-1,42,44,-1,-1,-1,-1,-1,-1,-1,-1,-1,46,48,50,52,-1,-1,-1,-1,-1,-1,-1,-1,-1,-1],"split_conditions":[7.889985E0,1.2600058E1,8.311338E0,1.109746E2,2.057176E0,6.9385805E0,1.3050657E1,6.8446226E0,6.25509E-2,1.1536807E0,7.272121E0,6.101129E-2,6.2873554E-1,1.9453533E-2,4.635459E0,2.3933706E0,1.0285434E-2,1.8611876E-2,-2.755037E-2,6.744538E0,8.2201576E-1,4.4250357E-1,1.1390064E-2,-4.751871E-2,-1.8833341E-2,-1.9133547E-2,3.3765152E-2,4.7710247E-2,5.9107437E0,4.327998E-1,-1.10600956E-1,3.2022167E-2,-2.074568E-2,-3.8413347E-3,2.062266E-2,-9.345719E-2,1.7325104E-3,-3.8694613E-2,4.093777E-2,3.6815752E-3,3.228708E1,9.077524E-1,1.3392565E1,-8.453141E-2,7.068946E-3,-6.527308E-2,3.1348273E-2,-6.4682476E-2,-1.1001721E-1,-6.95444E-2,-9.4727054E-2,-2.6770705E-2,-7.529846E-2],"split_indices":[373,624,393,4899,113,327,633,331,0,64,335,0,28,1,244,126,0,1,0,336,43,30,0,0,0,0,0,0,262,21,0,0,0,0,0,0,0,0,0,0,1557,44,613,0,0,0,0,0,0,0,0,0,0],"split_type":[0,0,0,0,0,0,0,0,0,0,0,0,0,0,0,0,0,0,0,0,0,0,0,0,0,0,0,0,0,0,0,0,0,0,0,0,0,0,0,0,0,0,0,0,0,0,0,0,0,0,0,0,0],"sum_hessian":[8.1E3,1.59E2,7.941E3,3E1,1.29E2,1.1E1,7.93E3,2.4E1,6E0,1.2E1,1.17E2,4E0,7E0,5E0,7.925E3,2.1E1,3E0,5E0,1E0,6E0,6E0,1.16E2,1E0,3E0,4E0,1E0,4E0,2E0,7.923E3,9E0,1.2E1,2E0,1E0,1E0,4E0,5E0,1E0,3E0,3E0,3E0,1.13E2,2.71E2,7.652E3,5E0,4E0,2E0,1E0,1.1E1,1.02E2,9.7E1,1.74E2,2.2E1,7.63E3],"tree_param":{"num_deleted":"0","num_feature":"10001","num_nodes":"53","size_leaf_vector":"0"}},{"base_weights":[-1.2505765E0],"categories":[],"categories_nodes":[],"categories_segments":[],"categories_sizes":[],"default_left":[0],"id":15,"left_children":[-1],"loss_changes":[0E0],"parents":[2147483647],"right_children":[-1],"split_conditions":[-3.7517297E-1],"split_indices":[0],"split_type":[0],"sum_hessian":[8.1E3],"tree_param":{"num_deleted":"0","num_feature":"10001","num_nodes":"1","size_leaf_vector":"0"}},{"base_weights":[2.4684664E1,2.9913261E1,1.8655151E1,3.414724E1,2.7308237E1,2.0705503E1,1.2831367E1,3.6345295E1,3.2225094E1,2.9263014E1,2.5853851E1,2.2922617E1,1.9545763E1,1.3668558E1,8.472108E0,3.647248E1,9.8200035E0,1.5964717E1,3.252413E1,2.9478252E1,1.5012382E1,1.271414E1,2.5999842E1,1.5532353E1,2.3412237E1,2.053876E1,1.8012428E1,1.3163956E1,2.0751202E1,9.514287E0,4.299432E0,3.6544586E1,4.1287575E0,3.7100668E0,-5.513109E-2,2.1826809E1,5.908751E0,3.267193E1,1.7313483E0,2.7179565E1,3.0642181E1,5.012892E0,1.0752739E1,1.8269844E1,4.5111527E0,2.6064285E1,1.0924981E0,9.703607E0,1.9208437E1,6.806806E0,2.3574331E1,1.9580563E1,2.5264627E1,3.0659046E1,1.7594013E1,1.59673815E1,1.1964792E1,-1.35792345E-2,2.199736E1,8.131138E0,2.3486767E1,1.2759894E1,2.030765E0,8.837215E0,1.1060769E1,7.9884844E0,2.0301492E0,2.4700963E0,4.576302E-1,3.5582561E0,9.848314E0,8.259552E0,3.3542526E0,1.760729E0,9.251246E0,5.090512E-1,1.9999821E0,7.138179E0,2.0646477E0,1.7583226E0,-4.2715274E-2,7.834062E0,1.7487303E0,3.6208743E-1,9.519876E-2,4.337761E0,1.5756667E0,8.390859E0,3.9892347E0,8.18248E-1,6.528094E0,9.376875E0,6.9192114E0,5.9524965E0,1.3450477E0,6.9691305E0,1.0346812E1,1.1076889E0,9.951333E0,5.0347986E0,7.0750017E0,3.9781044E0,6.1096697E0,5.7384987E0,3.45728E0,-2.0265967E-2,2.225141E-2,8.70975E0,5.2480273E0,1.8565325E0,3.5723E0,1.0258826E-1,7.730116E0,1.341359E0,5.357586E0,8.266523E-1,2.5044483E-1],"categories":[],"categories_nodes":[],"categories_segments":[],"categories_sizes":[],"default_left":[0,0,0,0,0,0,0,0,0,0,0,0,0,0,0,0,0,0,0,0,0,0,0,0,0,0,0,0,0,0,0,0,0,0,0,0,0,0,0,0,0,0,0,0,0,0,0,0,0,0,0,0,0,0,0,0,0,0,0,0,0,0,0,0,0,0,0,0,0,0,0,0,0,0,0,0,0,0,0,0,0,0,0,0,0,0,0,0,0,0,0,0,0,0,0,0,0,0,0,0,0,0,0,0,0,0,0,0,0,0,0,0,0,0,0,0,0],"id":16,"left_children":[1,3,5,7,9,11,13,15,17,19,21,23,25,27,29,31,33,35,37,39,41,43,45,47,49,51,53,55,57,59,61,63,-1,-1,-1,65,67,69,-1,71,73,75,-1,77,79,81,83,85,87,89,91,93,95,97,99,101,103,105,107,109,111,113,115,-1,-1,-1,-1,-1,-1,-1,-1,-1,-1,-1,-1,-1,-1,-1,-1,-1,-1,-1,-1,-1,-1,-1,-1,-1,-1,-1,-1,-1,-1,-1,-1,-1,-1,-1,-1,-1,-1,-1,-1,-1,-1,-1,-1,-1,-1,-1,-1,-1,-1,-1,-1,-1,-1],"loss_changes":[2.54833E5,4.6903E4,4.4691375E4,5.791375E3,6.891125E3,6.70775E3,3.4716875E3,2.20925E3,3.7985625E3,3.054125E3,2.6445625E3,3.0738438E3,2.4225E3,2.6681562E3,6.5923047E2,7.366875E2,1.296651E2,9.321128E2,3.255375E3,2.169125E3,3.7778389E3,7.834761E2,2.43225E3,1.142081E3,2.232375E3,4.5135938E3,3.3181094E3,2.400875E3,1.3717363E3,2.2827559E3,6.266826E2,6.486875E2,0E0,0E0,0E0,6.151953E2,6.896643E1,2.41825E3,0E0,1.8676562E3,3.384875E3,6.546118E1,0E0,5.28218E2,5.737175E1,1.3716875E3,6.062603E-2,4.7445093E2,1.5441855E3,5.506492E2,2.7287812E3,3.5531875E3,2.6327812E3,1.3678477E3,3.0447031E3,2.4445234E3,1.4962812E3,2.3955515E-2,1.0764141E3,7.920342E2,5.717334E2,2.1598315E2,2.1968796E1,0E0,0E0,0E0,0E0,0E0,0E0,0E0,0E0,0E0,0E0,0E0,0E0,0E0,0E0,0E0,0E0,0E0,0E0,0E0,0E0,0E0,0E0,0E0,0E0,0E0,0E0,0E0,0E0,0E0,0E0,0E0,0E0,0E0,0E0,0E0,0E0,0E0,0E0,0E0,0E0,0E0,0E0,0E0,0E0,0E0,0E0,0E0,0E0,0E0,0E0,0E0,0E0,0E0,0E0],"parents":[2147483647,0,0,1,1,2,2,3,3,4,4,5,5,6,6,7,7,8,8,9,9,10,10,11,11,12,12,13,13,14,14,15,15,16,16,17,17,18,18,19,19,20,20,21,21,22,22,23,23,24,24,25,25,26,26,27,27,28,28,29,29,30,30,31,31,35,35,36,36,37,37,39,39,40,40,41,41,43,43,44,44,45,45,46,46,47,47,48,48,49,49,50,50,51,51,52,52,53,53,54,54,55,55,56,56,57,57,58,58,59,59,60,60,61,61,62,62],"right_children":[2,4,6,8,10,12,14,16,18,20,22,24,26,28,30,32,34,36,38,40,42,44,46,48,50,52,54,56,58,60,62,64,-1,-1,-1,66,68,70,-1,72,74,76,-1,78,80,82,84,86,88,90,92,94,96,98,100,102,104,106,108,110,112,114,116,-1,-1,-1,-1,-1,-1,-1,-1,-1,-1,-1,-1,-1,-1,-1,-1,-1,-1,-1,-1,-1,-1,-1,-1,-1,-1,-1,-1,-1,-1,-1,-1,-1,-1,-1,-1,-1,-1,-1,-1,-1,-1,-1,-1,-1,-1,-1,-1,-1,-1,-1,-1,-1,-1],"split_conditions":[3.842728E2,1.3498987E2,2.1242441E2,2.5033614E2,2.2702739E2,4.1603806E2,5.919859E2,8.3330345E-1,2.0307555E2,5.0715137E-1,1.631724E2,3.036662E2,2.6241815E2,1.4577477E1,7.4499304E2,2.4164087E2,5.6146073E-1,2.2075456E2,3.4886591E0,2.7700964E-1,1.6352898E0,1.909699E2,8.836223E0,1.26050896E2,3.1255339E1,9.787055E0,5.7725763E0,6.3719337E1,5.8689337E-2,4.044868E1,3.4930782E0,2.4272692E0,4.1287575E0,3.7100668E0,-5.513109E-2,1.2568545E2,5.3196674E1,2.0207922E1,1.7313483E0,1.1369555E1,4.02427E1,3.9612587E1,1.0752739E1,5.253266E-1,1.1460804E0,9.3684006E1,1.217043E0,1.4972365E1,3.0249823E2,5.986512E-1,3.9454304E1,1.6666006E0,2.4049915E2,4.7199944E1,6.529954E1,2.6025705E2,3.0422255E-1,1.7466243E-1,3.849528E1,4.82582E0,1.0285434E-2,3.0446928E1,5.3606634E0,8.837215E0,1.1060769E1,7.9884844E0,2.0301492E0,2.4700963E0,4.576302E-1,3.5582561E0,9.848314E0,8.259552E0,3.3542526E0,1.760729E0,9.251246E0,5.090512E-1,1.9999821E0,7.138179E0,2.0646477E0,1.7583226E0,-4.2715274E-2,7.834062E0,1.7487303E0,3.6208743E-1,9.519876E-2,4.337761E0,1.5756667E0,8.390859E0,3.9892347E0,8.18248E-1,6.528094E0,9.376875E0,6.9192114E0,5.9524965E0,1.3450477E0,6.9691305E0,1.0346812E1,1.1076889E0,9.951333E0,5.0347986E0,7.0750017E0,3.9781044E0,6.1096697E0,5.7384987E0,3.45728E0,-2.0265967E-2,2.225141E-2,8.70975E0,5.2480273E0,1.8565325E0,3.5723E0,1.0258826E-1,7.730116E0,1.341359E0,5.357586E0,8.266523E-1,2.5044483E-1],"split_indices":[9259,4689,2586,9847,6800,8516,3172,4,8046,1,5043,7302,4151,56,2011,9461,0,8690,30,10,2,5827,45,3129,986,134,166,685,1,86,11,128,0,0,0,4939,2055,933,0,256,1585,1254,0,12,23,1871,0,387,7367,3,1044,3,3907,1041,772,2801,7,2,250,13,0,66,7,0,0,0,0,0,0,0,0,0,0,0,0,0,0,0,0,0,0,0,0,0,0,0,0,0,0,0,0,0,0,0,0,0,0,0,0,0,0,0,0,0,0,0,0,0,0,0,0,0,0,0,0,0,0],"split_type":[0,0,0,0,0,0,0,0,0,0,0,0,0,0,0,0,0,0,0,0,0,0,0,0,0,0,0,0,0,0,0,0,0,0,0,0,0,0,0,0,0,0,0,0,0,0,0,0,0,0,0,0,0,0,0,0,0,0,0,0,0,0,0,0,0,0,0,0,0,0,0,0,0,0,0,0,0,0,0,0,0,0,0,0,0,0,0,0,0,0,0,0,0,0,0,0,0,0,0,0,0,0,0,0,0,0,0,0,0,0,0,0,0,0,0,0,0],"sum_hessian":[8.1E3,4.336E3,3.764E3,1.647E3,2.689E3,2.782E3,9.82E2,7.6E2,8.87E2,1.139E3,1.55E3,9.49E2,1.833E3,8.22E2,1.6E2,7.56E2,4E0,1.7E1,8.7E2,1.121E3,1.8E1,1.8E1,1.532E3,6.1E1,8.88E2,1.105E3,7.28E2,7.7E2,5.2E1,1.27E2,3.3E1,7.53E2,3E0,3E0,1E0,1E1,7E0,8.65E2,5E0,3.85E2,7.36E2,1.3E1,5E0,1E1,8E0,1.528E3,4E0,2.5E1,3.6E1,9E0,8.79E2,9.23E2,1.82E2,2.1E1,7.07E2,2.27E2,5.43E2,3E0,4.9E1,1.17E2,1E1,6E0,2.7E1,3.7E1,7.16E2,7E0,3E0,4E0,3E0,7E0,8.58E2,3.76E2,9E0,6E0,7.3E2,5E0,8E0,6E0,4E0,6E0,2E0,1.524E3,4E0,3E0,1E0,1.1E1,1.4E1,1.3E1,2.3E1,8E0,1E0,5.1E1,8.28E2,9.07E2,1.6E1,1.52E2,3E1,2E0,1.9E1,6.26E2,8.1E1,1.43E2,8.4E1,2.9E1,5.14E2,2E0,1E0,1.7E1,3.2E1,7.9E1,3.8E1,1E0,9E0,3E0,3E0,1.6E1,1.1E1],"tree_param":{"num_deleted":"0","num_feature":"10001","num_nodes":"117","size_leaf_vector":"0"}},{"base_weights":[2.4625154E1,3.0214195E1,1.8582094E1,3.466105E1,2.7848045E1,2.0395836E1,1.3415623E1,3.788122E1,3.3355217E1,2.9602825E1,2.5939928E1,2.177913E1,1.8264174E1,1.4500094E1,9.52135E0,2.3037699E1,3.8344307E1,5.650822E0,3.3429558E1,3.0186047E1,2.3848839E1,2.6061716E1,5.222686E0,3.31006E1,2.1588305E1,1.7901789E1,2.3629559E1,1.4327425E1,3.181695E1,7.8048296E0,1.2761352E1,2.7234951E1,4.6865172E0,3.8431087E1,5.707937E-1,4.467459E-2,2.230546E0,3.3723064E1,2.5016506E1,1.6069506E1,3.0384274E1,8.889355E0,2.5769358E1,1.5847182E1,2.6287329E1,1.7075353E0,7.693299E0,1.0917445E0,3.4093765E1,2.1700577E1,7.409854E0,1.8354803E1,1.2876681E1,2.4288645E1,3.1004125E-1,2.250906E1,1.4017909E1,1.0861625E1,4.1691575E0,6.7518735E0,7.348593E0,9.531657E0,1.1263914E1,3.3573592E0,9.401821E0,2.9759325E-2,1.8547674E0,2.9015126E0,1.1565575E1,6.5217013E0,1.0179647E1,3.1262395E0,8.534096E0,6.682422E0,1.8031074E0,7.1957197E0,9.238075E0,3.293575E0,5.038461E-1,3.1954744E0,8.2519655E0,3.9871924E0,8.934354E0,3.9003232E0,7.926938E0,7.905627E-2,6.007976E-1,4.7504133E-1,2.6474667E0,3.8487077E0,1.0892895E1,6.4309916E0,8.722709E0,9.9797004E-1,6.790244E0,5.1700654E0,6.059969E0,3.2684402E0,6.697205E0,1.2827059E0,7.5479836E0,1.0853949E0,7.4159083E0,3.4581578E0,4.5332537E0,2.5035594E0,1.2214804E0,4.2218585E0,1.818335E0],"categories":[],"categories_nodes":[],"categories_segments":[],"categories_sizes":[],"default_left":[0,0,0,0,0,0,0,0,0,0,0,0,0,0,0,0,0,0,0,0,0,0,0,0,0,0,0,0,0,0,0,0,0,0,0,0,0,0,0,0,0,0,0,0,0,0,0,0,0,0,0,0,0,0,0,0,0,0,0,0,0,0,0,0,0,0,0,0,0,0,0,0,0,0,0,0,0,0,0,0,0,0,0,0,0,0,0,0,0,0,0,0,0,0,0,0,0,0,0,0,0,0,0,0,0,0,0,0,0],"id":17,"left_children":[1,3,5,7,9,11,13,15,17,19,21,23,25,27,29,31,33,35,37,39,41,43,45,47,49,51,53,55,57,59,61,63,65,67,-1,-1,-1,69,71,73,75,77,79,81,83,85,87,-1,89,91,93,95,97,99,-1,101,103,-1,-1,-1,105,-1,107,-1,-1,-1,-1,-1,-1,-1,-1,-1,-1,-1,-1,-1,-1,-1,-1,-1,-1,-1,-1,-1,-1,-1,-1,-1,-1,-1,-1,-1,-1,-1,-1,-1,-1,-1,-1,-1,-1,-1,-1,-1,-1,-1,-1,-1,-1],"loss_changes":[2.73049E5,4.330025E4,3.6225E4,4.86325E3,8.4435E3,8.0975E3,4.1485156E3,1.9555E3,1.96325E3,4.0655E3,3.2095E3,3.048875E3,1.7935E3,1.9123125E3,1.1461816E3,1.0277305E3,1.18875E3,3.8161682E1,1.729375E3,3.1245E3,3.678211E3,2.6208125E3,6.502463E1,6.659512E2,2.570875E3,2.204E3,1.0024961E3,1.6748906E3,4.7328125E1,8.34001E2,1.8056553E3,4.3948438E2,2.6837975E1,1.010125E3,0E0,0E0,0E0,1.778125E3,1.6563008E3,1.1145083E3,2.592625E3,2.3763367E2,2.8585E3,7.0849805E2,1.980375E3,1.6030712E0,2.0595123E1,0E0,7.593047E2,2.6898125E3,8.5718335E2,1.681375E3,1.4793457E3,1.0607227E3,0E0,1.0381201E3,1.8946875E3,0E0,0E0,0E0,4.428374E2,0E0,9.669385E2,0E0,0E0,0E0,0E0,0E0,0E0,0E0,0E0,0E0,0E0,0E0,0E0,0E0,0E0,0E0,0E0,0E0,0E0,0E0,0E0,0E0,0E0,0E0,0E0,0E0,0E0,0E0,0E0,0E0,0E0,0E0,0E0,0E0,0E0,0E0,0E0,0E0,0E0,0E0,0E0,0E0,0E0,0E0,0E0,0E0,0E0],"parents":[2147483647,0,0,1,1,2,2,3,3,4,4,5,5,6,6,7,7,8,8,9,9,10,10,11,11,12,12,13,13,14,14,15,15,16,16,17,17,18,18,19,19,20,20,21,21,22,22,23,23,24,24,25,25,26,26,27,27,28,28,29,29,30,30,31,31,32,32,33,33,37,37,38,38,39,39,40,40,41,41,42,42,43,43,44,44,45,45,46,46,48,48,49,49,50,50,51,51,52,52,53,53,55,55,56,56,60,60,62,62],"right_children":[2,4,6,8,10,12,14,16,18,20,22,24,26,28,30,32,34,36,38,40,42,44,46,48,50,52,54,56,58,60,62,64,66,68,-1,-1,-1,70,72,74,76,78,80,82,84,86,88,-1,90,92,94,96,98,100,-1,102,104,-1,-1,-1,106,-1,108,-1,-1,-1,-1,-1,-1,-1,-1,-1,-1,-1,-1,-1,-1,-1,-1,-1,-1,-1,-1,-1,-1,-1,-1,-1,-1,-1,-1,-1,-1,-1,-1,-1,-1,-1,-1,-1,-1,-1,-1,-1,-1,-1,-1,-1,-1],"split_conditions":[1.2266799E2,2.4365642E2,3.0822864E2,2.3558893E2,1.4046237E2,1.7566531E2,1.331748E3,9.6285063E-1,2.3428186E2,2.9092674E0,4.1921295E2,4.265264E-1,1.2884496E2,2.7564355E2,7.0064306E0,2.4675865E0,5.5041164E-1,4.202842E-3,8.495185E1,1.5449684E0,1.1783062E1,2.1882335E2,1.22952805E2,7.1938306E-2,2.4289608E1,5.330935E1,4.0269168E2,2.0294952E-1,3.67376E1,2.6117516E0,2.9557663E1,4.2147834E-2,3.1492267E-2,5.5433042E-2,5.707937E-1,4.467459E-2,2.230546E0,8.5490005E1,9.297248E1,6.6881037E-1,5.302281E1,1.0139714E0,9.771085E-1,7.313248E1,6.718827E1,1.1030663E-1,1.6657288E-1,1.0917445E0,1.12520454E2,3.792499E1,6.0596745E1,3.3267483E-1,8.566865E1,7.69843E0,3.1004125E-1,2.76785E-1,1.1735381E0,1.0861625E1,4.1691575E0,6.7518735E0,5.8854156E1,9.531657E0,1.6281034E1,3.3573592E0,9.401821E0,2.9759325E-2,1.8547674E0,2.9015126E0,1.1565575E1,6.5217013E0,1.0179647E1,3.1262395E0,8.534096E0,6.682422E0,1.8031074E0,7.1957197E0,9.238075E0,3.293575E0,5.038461E-1,3.1954744E0,8.2519655E0,3.9871924E0,8.934354E0,3.9003232E0,7.926938E0,7.905627E-2,6.007976E-1,4.7504133E-1,2.6474667E0,3.8487077E0,1.0892895E1,6.4309916E0,8.722709E0,9.9797004E-1,6.790244E0,5.1700654E0,6.059969E0,3.2684402E0,6.697205E0,1.2827059E0,7.5479836E0,1.0853949E0,7.4159083E0,3.4581578E0,4.5332537E0,2.5035594E0,1.2214804E0,4.2218585E0,1.818335E0],"split_indices":[3017,8701,3835,9870,4166,3102,8302,56,9811,61,8990,23,1587,1578,20,123,1,0,2934,79,397,6628,3121,7,256,668,4932,7,133,47,188,3,2,6,0,0,0,3682,3224,34,1950,7,24,1872,2184,0,5,0,2680,580,790,3,997,146,0,15,12,0,0,0,230,0,27,0,0,0,0,0,0,0,0,0,0,0,0,0,0,0,0,0,0,0,0,0,0,0,0,0,0,0,0,0,0,0,0,0,0,0,0,0,0,0,0,0,0,0,0,0,0],"split_type":[0,0,0,0,0,0,0,0,0,0,0,0,0,0,0,0,0,0,0,0,0,0,0,0,0,0,0,0,0,0,0,0,0,0,0,0,0,0,0,0,0,0,0,0,0,0,0,0,0,0,0,0,0,0,0,0,0,0,0,0,0,0,0,0,0,0,0,0,0,0,0,0,0,0,0,0,0,0,0,0,0,0,0,0,0,0,0,0,0,0,0,0,0,0,0,0,0,0,0,0,0,0,0,0,0,0,0,0,0],"sum_hessian":[8.1E3,4.206E3,3.894E3,1.456E3,2.75E3,2.88E3,1.014E3,4.12E2,1.044E3,1.425E3,1.325E3,1.741E3,1.139E3,7.91E2,2.23E2,1.4E1,3.98E2,3E0,1.041E3,1.29E3,1.35E2,1.317E3,8E0,2.6E1,1.715E3,1.071E3,6.8E1,7.85E2,6E0,1.48E2,7.5E1,1.1E1,3E0,3.97E2,1E0,1E0,2E0,1.003E3,3.8E1,1.9E1,1.271E3,1.6E1,1.19E2,3E1,1.287E3,4E0,4E0,1E0,2.5E1,1.701E3,1.4E1,9.8E2,9.1E1,6.6E1,2E0,2.6E1,7.59E2,4E0,2E0,3E0,1.45E2,4E0,7.1E1,3E0,8E0,1E0,2E0,2E0,3.95E2,1.9E1,9.84E2,8E0,3E1,1.1E1,8E0,8E1,1.191E3,1.2E1,4E0,1.3E1,1.06E2,2.7E1,3E0,1.4E1,1.273E3,1E0,3E0,1E0,3E0,3E0,2.2E1,1.646E3,5.5E1,1.2E1,2E0,6.16E2,3.64E2,7.7E1,1.4E1,3E0,6.3E1,3E0,2.3E1,2.35E2,5.24E2,1.1E2,3.5E1,4.5E1,2.6E1],"tree_param":{"num_deleted":"0","num_feature":"10001","num_nodes":"109","size_leaf_vector":"0"}},{"base_weights":[2.4432394E1,2.951566E1,1.8570362E1,3.3388996E1,2.6574398E1,2.0552727E1,1.3179173E1,3.9875786E1,3.2489883E1,2.8013248E1,2.5253641E1,2.2220581E1,1.8490414E1,1.4473573E1,9.284946E0,3.999008E1,2.1752815E0,3.2569675E1,5.25186E0,2.1362486E1,2.8715965E1,2.494985E1,3.6492672E1,2.2355324E1,3.4696887E0,1.8169458E1,3.3310715E1,1.3673853E1,1.8351908E1,8.337706E0,1.46662445E1,4.0105183E1,2.1829636E0,3.4102345E1,3.08714E1,1.8555192E0,8.787609E-2,2.5041237E1,1.2831067E1,2.0170406E1,2.905812E1,2.5403465E1,1.86604E1,1.7473227E0,3.834308E1,2.2102394E1,2.7618666E1,4.21866E0,1.2283512E0,2.7967651E1,1.7871489E1,1.040362E1,7.174964E-2,2.7114038E1,1.3348834E1,2.8988886E1,1.655749E1,1.0559564E1,6.688492E0,2.66813E1,9.851359E0,6.4523015E0,1.2130833E1,7.791901E0,1.0408703E1,2.9694927E0,9.330213E0,3.170927E0,8.46546E0,2.9386744E0,7.332278E0,4.1606627E0,7.923499E0,1.0237474E1,8.511835E0,4.84139E0,7.716931E0,3.4167507E0,6.5433927E0,1.231253E1,3.1623542E0,6.9338E0,6.1992397E0,1.0093892E1,4.7758565E0,7.426561E-1,1.3536683E-1,9.3565565E-1,9.353059E0,4.998593E0,5.970561E0,6.610949E-1,9.32464E0,1.2076119E0,4.0813756E0,2.4900312E0,1.0414859E1,2.899253E0,5.8427343E0,1.8907624E0,4.03156E0,1.911627E0,7.078195E0,3.914763E0,1.0078347E1,5.5833006E0,1.4167588E0],"categories":[],"categories_nodes":[],"categories_segments":[],"categories_sizes":[],"default_left":[0,0,0,0,0,0,0,0,0,0,0,0,0,0,0,0,0,0,0,0,0,0,0,0,0,0,0,0,0,0,0,0,0,0,0,0,0,0,0,0,0,0,0,0,0,0,0,0,0,0,0,0,0,0,0,0,0,0,0,0,0,0,0,0,0,0,0,0,0,0,0,0,0,0,0,0,0,0,0,0,0,0,0,0,0,0,0,0,0,0,0,0,0,0,0,0,0,0,0,0,0,0,0,0,0,0,0],"id":18,"left_children":[1,3,5,7,9,11,13,15,17,19,21,23,25,27,29,31,-1,33,35,37,39,41,43,45,47,49,51,53,55,57,59,61,-1,63,65,-1,-1,67,69,71,73,75,77,-1,79,81,83,-1,85,87,89,-1,-1,91,93,95,97,99,101,103,105,-1,-1,-1,-1,-1,-1,-1,-1,-1,-1,-1,-1,-1,-1,-1,-1,-1,-1,-1,-1,-1,-1,-1,-1,-1,-1,-1,-1,-1,-1,-1,-1,-1,-1,-1,-1,-1,-1,-1,-1,-1,-1,-1,-1,-1,-1],"loss_changes":[2.408475E5,4.852225E4,3.996675E4,9.599375E3,3.986375E3,9.0515E3,4.9819062E3,5.4159375E2,3.40625E3,4.8686875E3,3.52125E3,3.75275E3,5.274E3,2.1062656E3,1.1826484E3,5.4409375E2,0E0,3.21875E3,2.5954483E1,3.3193516E3,2.5073125E3,3.14075E3,1.5926289E3,1.3930625E3,2.6762335E2,3.0386875E3,1.1227676E3,2.4075703E3,1.9440898E3,7.3552344E2,1.8776431E3,4.9040625E2,0E0,3.2131875E3,3.4865625E3,0E0,0E0,3.3797656E3,1.0645249E3,1.3641973E3,2.556375E3,3.0765625E3,1.790668E3,0E0,1.8182266E3,1.6161875E3,4.0480508E3,0E0,9.544308E0,2.6140957E3,2.5637812E3,0E0,0E0,1.3153604E3,1.4259922E3,1.7262012E3,2.0447344E3,1.0428389E3,5.3966943E2,5.0403076E2,1.1700574E3,0E0,0E0,0E0,0E0,0E0,0E0,0E0,0E0,0E0,0E0,0E0,0E0,0E0,0E0,0E0,0E0,0E0,0E0,0E0,0E0,0E0,0E0,0E0,0E0,0E0,0E0,0E0,0E0,0E0,0E0,0E0,0E0,0E0,0E0,0E0,0E0,0E0,0E0,0E0,0E0,0E0,0E0,0E0,0E0,0E0,0E0],"parents":[2147483647,0,0,1,1,2,2,3,3,4,4,5,5,6,6,7,7,8,8,9,9,10,10,11,11,12,12,13,13,14,14,15,15,17,17,18,18,19,19,20,20,21,21,22,22,23,23,24,24,25,25,26,26,27,27,28,28,29,29,30,30,31,31,33,33,34,34,37,37,38,38,39,39,40,40,41,41,42,42,44,44,45,45,46,46,48,48,49,49,50,50,53,53,54,54,55,55,56,56,57,57,58,58,59,59,60,60],"right_children":[2,4,6,8,10,12,14,16,18,20,22,24,26,28,30,32,-1,34,36,38,40,42,44,46,48,50,52,54,56,58,60,62,-1,64,66,-1,-1,68,70,72,74,76,78,-1,80,82,84,-1,86,88,90,-1,-1,92,94,96,98,100,102,104,106,-1,-1,-1,-1,-1,-1,-1,-1,-1,-1,-1,-1,-1,-1,-1,-1,-1,-1,-1,-1,-1,-1,-1,-1,-1,-1,-1,-1,-1,-1,-1,-1,-1,-1,-1,-1,-1,-1,-1,-1,-1,-1,-1,-1,-1,-1],"split_conditions":[1.9175554E2,2.8150742E2,1.14814644E2,2.0861024E2,3.2720032E2,3.6725034E2,2.8695084E2,1.3400733E-1,5.4865193E0,5.9255154E1,1.3441394E2,3.715157E0,3.2814796E1,2.9625542E0,2.9936728E0,3.3265766E1,2.1752815E0,2.0121988E2,3.423469E-1,8.755567E1,3.6601017E0,5.4816446E0,7.362471E1,5.0734467E1,6.346621E-2,1.4362453E1,6.721457E0,2.8528094E0,2.1034438E2,6.4589715E0,4.1274082E1,4.506358E-3,2.1829636E0,4.866409E1,1.5890579E2,1.8555192E0,8.787609E-2,1.01526634E2,4.736151E1,1.1053195E0,1.391291E1,1.0453351E1,5.3373995E0,1.7473227E0,3.52811E1,1.9296898E1,4.4654594E1,4.21866E0,2.1049545E0,1.8039248E1,1.9410174E0,1.040362E1,7.174964E-2,4.8661857E0,4.2137424E1,9.005178E1,8.2993416E1,8.2959574E-1,2.9070776E0,4.341913E1,9.019549E0,6.4523015E0,1.2130833E1,7.791901E0,1.0408703E1,2.9694927E0,9.330213E0,3.170927E0,8.46546E0,2.9386744E0,7.332278E0,4.1606627E0,7.923499E0,1.0237474E1,8.511835E0,4.84139E0,7.716931E0,3.4167507E0,6.5433927E0,1.231253E1,3.1623542E0,6.9338E0,6.1992397E0,1.0093892E1,4.7758565E0,7.426561E-1,1.3536683E-1,9.3565565E-1,9.353059E0,4.998593E0,5.970561E0,6.610949E-1,9.32464E0,1.2076119E0,4.0813756E0,2.4900312E0,1.0414859E1,2.899253E0,5.8427343E0,1.8907624E0,4.03156E0,1.911627E0,7.078195E0,3.914763E0,1.0078347E1,5.5833006E0,1.4167588E0],"split_indices":[4617,9466,1406,9178,9478,6655,1891,0,61,2034,3155,10,294,11,3,1328,0,7570,0,2943,162,85,1854,817,0,368,10,84,2480,32,175,1,0,2136,6098,0,0,3656,1596,49,488,389,71,0,574,395,626,0,3,557,23,0,0,171,610,1104,789,5,2,226,20,0,0,0,0,0,0,0,0,0,0,0,0,0,0,0,0,0,0,0,0,0,0,0,0,0,0,0,0,0,0,0,0,0,0,0,0,0,0,0,0,0,0,0,0,0,0],"split_type":[0,0,0,0,0,0,0,0,0,0,0,0,0,0,0,0,0,0,0,0,0,0,0,0,0,0,0,0,0,0,0,0,0,0,0,0,0,0,0,0,0,0,0,0,0,0,0,0,0,0,0,0,0,0,0,0,0,0,0,0,0,0,0,0,0,0,0,0,0,0,0,0,0,0,0,0,0,0,0,0,0,0,0,0,0,0,0,0,0,0,0,0,0,0,0,0,0,0,0,0,0,0,0,0,0,0,0],"sum_hessian":[8.1E3,4.336E3,3.764E3,1.867E3,2.469E3,2.75E3,1.014E3,2.22E2,1.645E3,1.172E3,1.297E3,1.515E3,1.235E3,7.59E2,2.55E2,2.21E2,1E0,1.64E3,5E0,1.15E2,1.057E3,1.266E3,3.1E1,1.504E3,1.1E1,1.211E3,2.4E1,6.33E2,1.26E2,2.19E2,3.6E1,2.2E2,1E0,8.52E2,7.88E2,4E0,1E0,7.9E1,3.6E1,4.3E1,1.014E3,1.178E3,8.8E1,2E0,2.9E1,1.44E3,6.4E1,1E0,1E1,3.3E1,1.178E3,2.3E1,1E0,1.3E1,6.2E2,1.6E1,1.1E2,9.1E1,1.28E2,9E0,2.7E1,5E0,2.15E2,6.1E1,7.91E2,9E0,7.79E2,1.5E1,6.4E1,3E1,6E0,2.3E1,2E1,1.15E2,8.99E2,4.1E1,1.137E3,2.8E1,6E1,2.6E1,3E0,8.37E2,6.03E2,4.1E1,2.3E1,3E0,7E0,4E0,2.9E1,7.44E2,4.34E2,2E0,1.1E1,1.7E1,6.03E2,4E0,1.2E1,3.4E1,7.6E1,3.8E1,5.3E1,1.27E2,1E0,4E0,5E0,9E0,1.8E1],"tree_param":{"num_deleted":"0","num_feature":"10001","num_nodes":"107","size_leaf_vector":"0"}},{"base_weights":[2.4564758E1,1.8846008E1,2.4653475E1,2.1210876E1,1.4169266E1,3.435014E1,2.4619883E1,2.3459263E1,1.4325553E1,1.1239167E1,2.8888506E1,1.1798875E1,1.2026966E1,2.4585632E1,3.1870926E1,1.816274E1,2.7402897E1,7.3549423E0,2.1261225E1,6.393625E0,1.3602397E1,1.4900229E0,9.614304E0,4.1508636E0,5.5558343E0,2.4649275E1,2.0552313E1,2.6484363E0,1.0084371E1,2.195445E1,7.2973337E0,1.7296593E1,3.166984E1,5.8892745E-1,8.1568165E0,2.6434338E1,2.9299865E0,1.0464944E1,2.5166404E0,1.6122269E1,7.051274E0,5.579284E-2,1.6231502E0,1.6995588E1,2.467173E1,1.2116119E1,2.181119E1,1.1120682E0,7.972824E-2,4.069622E0,8.504291E0,5.7565516E-1,2.5679765E0,6.907649E0,2.319032E0,1.0164274E1,1.9118212E0,4.5225665E-1,2.6012983E0,1.4887666E0,8.755763E0,4.0362573E0,1.4578385E0,1.0204532E0,1.6805261E-1,9.39455E-1,5.2651186E0,7.363278E-1,2.682188E0,5.728778E0,2.0435426E0,8.156995E0,7.375714E0,2.2639174E0,5.6615653E0,2.0571317E-1,6.657757E0],"categories":[],"categories_nodes":[],"categories_segments":[],"categories_sizes":[],"default_left":[0,0,0,0,0,0,0,0,0,0,0,0,0,0,0,0,0,0,0,0,0,0,0,0,0,0,0,0,0,0,0,0,0,0,0,0,0,0,0,0,0,0,0,0,0,0,0,0,0,0,0,0,0,0,0,0,0,0,0,0,0,0,0,0,0,0,0,0,0,0,0,0,0,0,0,0,0],"id":19,"left_children":[1,3,5,7,9,11,13,15,17,19,21,-1,23,25,27,29,31,33,35,37,39,-1,-1,41,-1,43,45,47,-1,49,51,53,55,-1,57,59,-1,61,63,65,67,-1,-1,69,71,73,75,-1,-1,-1,-1,-1,-1,-1,-1,-1,-1,-1,-1,-1,-1,-1,-1,-1,-1,-1,-1,-1,-1,-1,-1,-1,-1,-1,-1,-1,-1],"loss_changes":[3.645E3,1.115125E3,1.7525E3,9.4884375E2,1.6592432E3,2.3059082E3,1.19E3,7.764297E2,9.555796E2,3.7107715E2,3.698374E2,0E0,2.2994104E2,1.5265E3,1.6433945E3,1.0345469E3,8.752793E2,4.019403E1,3.9591748E2,2.1043018E2,3.155254E2,0E0,0E0,1.8971062E1,0E0,9.19E2,1.1057305E3,6.580736E0,0E0,7.4173926E2,4.4692078E1,4.7967603E2,1.0146289E3,0E0,2.4536316E1,2.6872656E2,0E0,5.1912964E1,1.367551E1,2.789839E2,5.6221466E1,0E0,0E0,4.260459E2,1.0135E3,4.4415356E2,8.7898047E2,0E0,0E0,0E0,0E0,0E0,0E0,0E0,0E0,0E0,0E0,0E0,0E0,0E0,0E0,0E0,0E0,0E0,0E0,0E0,0E0,0E0,0E0,0E0,0E0,0E0,0E0,0E0,0E0,0E0,0E0],"parents":[2147483647,0,0,1,1,2,2,3,3,4,4,5,5,6,6,7,7,8,8,9,9,10,10,12,12,13,13,14,14,15,15,16,16,17,17,18,18,19,19,20,20,23,23,25,25,26,26,27,27,29,29,30,30,31,31,32,32,34,34,35,35,37,37,38,38,39,39,40,40,43,43,44,44,45,45,46,46],"right_children":[2,4,6,8,10,12,14,16,18,20,22,-1,24,26,28,30,32,34,36,38,40,-1,-1,42,-1,44,46,48,-1,50,52,54,56,-1,58,60,-1,62,64,66,68,-1,-1,70,72,74,76,-1,-1,-1,-1,-1,-1,-1,-1,-1,-1,-1,-1,-1,-1,-1,-1,-1,-1,-1,-1,-1,-1,-1,-1,-1,-1,-1,-1,-1,-1],"split_conditions":[1.4477114E1,1.8545315E1,4.973591E-1,3.5874057E-1,1.7234068E1,6.082171E0,6.0183098E1,2.0650917E1,5.4803185E0,3.746991E-1,9.616778E-3,1.1798875E1,5.5991917E0,7.6223854E1,7.426342E1,4.2856026E1,1.0987599E0,1.0976155E-1,2.3154537E-1,2.375815E1,6.423552E-1,1.4900229E0,9.614304E0,6.4039713E-4,5.5558343E0,5.5433042E-2,4.9970863E1,1.792525E-1,1.0084371E1,1.16839775E2,2.2807235E-2,1.263671E0,6.873673E-1,5.8892745E-1,3.6569506E-1,4.2147834E-2,2.9299865E0,4.8501043E0,4.076834E-1,7.729834E0,6.1009634E-1,5.579284E-2,1.6231502E0,3.9900652E-1,1.4622361E1,2.042826E0,2.3387627E1,1.1120682E0,7.972824E-2,4.069622E0,8.504291E0,5.7565516E-1,2.5679765E0,6.907649E0,2.319032E0,1.0164274E1,1.9118212E0,4.5225665E-1,2.6012983E0,1.4887666E0,8.755763E0,4.0362573E0,1.4578385E0,1.0204532E0,1.6805261E-1,9.39455E-1,5.2651186E0,7.363278E-1,2.682188E0,5.728778E0,2.0435426E0,8.156995E0,7.375714E0,2.2639174E0,5.6615653E0,2.0571317E-1,6.657757E0],"split_indices":[681,881,33,13,789,195,130,1005,261,18,0,0,163,384,241,2025,55,6,6,1106,25,0,0,0,0,6,242,0,0,5560,1,65,27,0,13,3,0,238,21,393,23,0,0,16,638,6,152,0,0,0,0,0,0,0,0,0,0,0,0,0,0,0,0,0,0,0,0,0,0,0,0,0,0,0,0,0,0],"split_type":[0,0,0,0,0,0,0,0,0,0,0,0,0,0,0,0,0,0,0,0,0,0,0,0,0,0,0,0,0,0,0,0,0,0,0,0,0,0,0,0,0,0,0,0,0,0,0,0,0,0,0,0,0,0,0,0,0,0,0,0,0,0,0,0,0,0,0,0,0,0,0,0,0,0,0,0,0],"sum_hessian":[8.1E3,1.27E2,7.973E3,8.2E1,4.5E1,2.4E1,7.949E3,6E1,2.2E1,3.9E1,6E0,1.9E1,5E0,7.916E3,3.3E1,2.8E1,3.2E1,1.2E1,1E1,1.4E1,2.5E1,1E0,5E0,3E0,2E0,7.788E3,1.28E2,2E0,3.1E1,2E1,8E0,1.1E1,2.1E1,2E0,1E1,6E0,4E0,6E0,8E0,1.7E1,8E0,1E0,2E0,2.5E1,7.763E3,1.8E1,1.1E2,1E0,1E0,1E1,1E1,2E0,6E0,6E0,5E0,1.9E1,2E0,1E0,9E0,1E0,5E0,3E0,3E0,5E0,3E0,2E0,1.5E1,3E0,5E0,2E1,5E0,2.46E2,7.517E3,1.2E1,6E0,2E0,1.08E2],"tree_param":{"num_deleted":"0","num_feature":"10001","num_nodes":"77","size_leaf_vector":"0"}},{"base_weights":[-8.7296826E-1],"categories":[],"categories_nodes":[],"categories_segments":[],"categories_sizes":[],"default_left":[0],"id":20,"left_children":[-1],"loss_changes":[0E0],"parents":[2147483647],"right_children":[-1],"split_conditions":[-2.618905E-1],"split_indices":[0],"split_type":[0],"sum_hessian":[8.1E3],"tree_param":{"num_deleted":"0","num_feature":"10001","num_nodes":"1","size_leaf_vector":"0"}},{"base_weights":[-1.7389485E-1,-1.8552653E-1,-1.7075592E-1,-1.7380466E-1,-2.0524551E-1,-1.3129601E-1,-1.7250171E-1,-1.8036133E-1,-6.1426718E-2,-2.0657046E-1,4.242271E-2,-1.1692608E-1,-2.2971436E-1,-2.1977638E-1,-1.7070939E-1,-1.825333E-1,1.16938636E-1,-2.6302082E-2,-2.614466E-1,-1.3380483E-1,-2.1288536E-1,-1.7580377E-1,-7.3504455E-2,-2.779601E-1,-3.9151055E-3,-1.9955052E-1,-2.9194483E-1,6.262286E-2,-1.7103688E-1,-1.8911637E-1,-1.4250961E-1,6.247313E-2,-2.6427425E-2,-8.960706E-2,8.263148E-2,-9.079539E-2,-2.344604E-2,-2.4603394E-1,-8.72089E-2,-2.1643828E-1,-8.2907215E-2,5.7186186E-3,-2.0007029E-1,7.5377196E-2,-1.0316255E-1,-7.174249E-2,-2.998365E-1,3.547438E-2,-2.0477764E-2,-2.1721356E-1,-7.936998E-2,-2.9229192E-2,-3.0324975E-1,2.0019129E-1,-8.747013E-2,6.1207544E-2,-1.711989E-1,-5.488046E-2,-8.3081916E-2,-4.5577966E-2,3.12329E-2,-1.1826867E-2,1.8838451E-3,2.5189472E-2,-3.893994E-2,5.5993676E-2,-1.2014152E-2,3.307947E-2,-8.3807975E-2,-5.3010896E-2,-3.0067277E-3,1.250244E-2,-6.536942E-2,3.7778508E-2,-6.247967E-2,-2.5848452E-2,3.8181704E-2,-1.1751396E-2,-6.659343E-2,5.504118E-2,-2.8290188E-2,-3.60239E-2,1.2813765E-2,-8.068713E-3,-3.0942427E-2,-2.8376034E-2,-9.7057715E-2,2.0098213E-2,3.2537857E-3,-1.6334724E-2,-6.776337E-2,-8.215554E-2,-8.034309E-3,-2.608916E-2,-9.189865E-2,7.824873E-2,2.1846915E-2,-3.3054717E-2,5.068302E-4,-4.2277683E-2,-5.191374E-2],"categories":[],"categories_nodes":[],"categories_segments":[],"categories_sizes":[],"default_left":[0,0,0,0,0,0,0,0,0,0,0,0,0,0,0,0,0,0,0,0,0,0,0,0,0,0,0,0,0,0,0,0,0,0,0,0,0,0,0,0,0,0,0,0,0,0,0,0,0,0,0,0,0,0,0,0,0,0,0,0,0,0,0,0,0,0,0,0,0,0,0,0,0,0,0,0,0,0,0,0,0,0,0,0,0,0,0,0,0,0,0,0,0,0,0,0,0,0,0,0,0],"id":21,"left_children":[1,3,5,7,9,11,13,15,17,19,-1,21,23,25,27,29,31,33,35,37,39,41,43,45,47,49,51,53,55,57,59,-1,61,63,65,-1,-1,67,69,71,73,75,77,79,81,83,85,87,-1,89,91,-1,93,95,97,-1,99,-1,-1,-1,-1,-1,-1,-1,-1,-1,-1,-1,-1,-1,-1,-1,-1,-1,-1,-1,-1,-1,-1,-1,-1,-1,-1,-1,-1,-1,-1,-1,-1,-1,-1,-1,-1,-1,-1,-1,-1,-1,-1,-1,-1],"loss_changes":[2.6409912E-1,3.595848E-1,4.176941E-1,7.839546E-1,3.1948853E-1,3.6206293E-1,4.8085022E-1,6.7934036E-1,4.2168653E-1,2.610054E-1,0E0,6.0576606E-1,3.6930275E-1,2.6286983E-1,4.6148682E-1,2.3969269E-1,1.102238E-1,3.7289435E-1,4.431963E-2,2.557029E-1,2.4897766E-1,4.504454E-1,6.303682E-1,1.0480523E-1,2.016282E-2,3.5424137E-1,7.1606874E-2,2.0334326E-1,3.9291382E-1,4.1947365E-1,3.5720968E-1,0E0,1.9477215E-3,2.480939E-1,2.6268083E-1,0E0,0E0,2.0891368E-1,2.6763064E-1,2.2083473E-1,4.712743E-1,1.561548E-1,3.0854988E-1,4.5748663E-1,2.9632747E-1,2.858501E-3,9.095383E-2,3.1547835E-3,0E0,2.0205975E-1,2.381282E-1,0E0,1.996994E-3,1.9622266E-2,1.031122E-2,0E0,3.0488586E-1,0E0,0E0,0E0,0E0,0E0,0E0,0E0,0E0,0E0,0E0,0E0,0E0,0E0,0E0,0E0,0E0,0E0,0E0,0E0,0E0,0E0,0E0,0E0,0E0,0E0,0E0,0E0,0E0,0E0,0E0,0E0,0E0,0E0,0E0,0E0,0E0,0E0,0E0,0E0,0E0,0E0,0E0,0E0,0E0],"parents":[2147483647,0,0,1,1,2,2,3,3,4,4,5,5,6,6,7,7,8,8,9,9,11,11,12,12,13,13,14,14,15,15,16,16,17,17,18,18,19,19,20,20,21,21,22,22,23,23,24,24,25,25,26,26,27,27,28,28,29,29,30,30,32,32,33,33,34,34,37,37,38,38,39,39,40,40,41,41,42,42,43,43,44,44,45,45,46,46,47,47,49,49,50,50,52,52,53,53,54,54,56,56],"right_children":[2,4,6,8,10,12,14,16,18,20,-1,22,24,26,28,30,32,34,36,38,40,42,44,46,48,50,52,54,56,58,60,-1,62,64,66,-1,-1,68,70,72,74,76,78,80,82,84,86,88,-1,90,92,-1,94,96,98,-1,100,-1,-1,-1,-1,-1,-1,-1,-1,-1,-1,-1,-1,-1,-1,-1,-1,-1,-1,-1,-1,-1,-1,-1,-1,-1,-1,-1,-1,-1,-1,-1,-1,-1,-1,-1,-1,-1,-1,-1,-1,-1,-1,-1,-1],"split_conditions":[1.1985245E0,4.6998196E1,1.5900277E0,1.0518606E1,1.0623559E0,2.0553865E2,1.460837E0,4.7840626E1,1.5034082E0,2.1528194E0,4.242271E-2,8.115977E0,7.182253E0,1.2395329E-1,1.5895469E1,2.924182E-1,2.7085588E0,4.5057243E1,1.4418684E0,1.14663295E-1,4.2796326E1,8.080522E-1,2.9587235E0,1.2545097E0,8.259984E-1,1.0189495E-1,1.4903004E0,1.7680725E0,1.6604522E0,1.1393583E-1,3.4254566E1,6.247313E-2,1.3268258E-2,1.1953807E0,7.468609E1,-9.079539E-2,-2.344604E-2,4.4398866E0,1.0256301E1,2.3963507E1,4.2204723E0,1.7195117E0,1.2120875E2,1.3413572E0,1.1232551E1,1.9622594E-1,2.0013102E1,2.562383E-3,-2.0477764E-2,8.2156444E-1,1.824338E0,-2.9229192E-2,1.2332984E0,1.0092305E-1,1.4857742E0,6.1207544E-2,7.692627E-1,-5.488046E-2,-8.3081916E-2,-4.5577966E-2,3.12329E-2,-1.1826867E-2,1.8838451E-3,2.5189472E-2,-3.893994E-2,5.5993676E-2,-1.2014152E-2,3.307947E-2,-8.3807975E-2,-5.3010896E-2,-3.0067277E-3,1.250244E-2,-6.536942E-2,3.7778508E-2,-6.247967E-2,-2.5848452E-2,3.8181704E-2,-1.1751396E-2,-6.659343E-2,5.504118E-2,-2.8290188E-2,-3.60239E-2,1.2813765E-2,-8.068713E-3,-3.0942427E-2,-2.8376034E-2,-9.7057715E-2,2.0098213E-2,3.2537857E-3,-1.6334724E-2,-6.776337E-2,-8.215554E-2,-8.034309E-3,-2.608916E-2,-9.189865E-2,7.824873E-2,2.1846915E-2,-3.3054717E-2,5.068302E-4,-4.2277683E-2,-5.191374E-2],"split_indices":[45,1603,58,347,35,5121,51,1634,58,105,0,309,160,2,723,9,119,1596,52,7,667,32,121,47,24,2,55,60,63,2,1206,0,0,60,2579,0,0,225,338,971,144,66,5298,49,317,7,558,0,0,34,68,0,46,2,39,0,27,0,0,0,0,0,0,0,0,0,0,0,0,0,0,0,0,0,0,0,0,0,0,0,0,0,0,0,0,0,0,0,0,0,0,0,0,0,0,0,0,0,0,0,0],"split_type":[0,0,0,0,0,0,0,0,0,0,0,0,0,0,0,0,0,0,0,0,0,0,0,0,0,0,0,0,0,0,0,0,0,0,0,0,0,0,0,0,0,0,0,0,0,0,0,0,0,0,0,0,0,0,0,0,0,0,0,0,0,0,0,0,0,0,0,0,0,0,0,0,0,0,0,0,0,0,0,0,0,0,0,0,0,0,0,0,0,0,0,0,0,0,0,0,0,0,0,0,0],"sum_hessian":[8.1E3,1.709E3,6.391E3,1.078E3,6.31E2,2.74E2,6.117E3,1.018E3,6E1,6.29E2,2E0,2.41E2,3.3E1,2.19E2,5.898E3,1.011E3,7E0,5.2E1,8E0,5.2E1,5.77E2,1.01E2,1.4E2,2.7E1,6E0,1.74E2,4.5E1,8E0,5.89E3,8.65E2,1.46E2,4E0,3E0,3.3E1,1.9E1,6E0,2E0,1.4E1,3.8E1,5.61E2,1.6E1,1.2E1,8.9E1,2.3E1,1.17E2,3E0,2.4E1,4E0,2E0,1.51E2,2.3E1,3E0,4.2E1,4E0,4E0,2E0,5.888E3,8.11E2,5.4E1,1.41E2,5E0,2E0,1E0,6E0,2.7E1,1E1,9E0,1E0,1.3E1,1.7E1,2.1E1,3E0,5.58E2,6E0,1E1,7E0,5E0,1.1E1,7.8E1,1.4E1,9E0,1.05E2,1.2E1,2E0,1E0,3E0,2.1E1,1E0,3E0,8E0,1.43E2,4E0,1.9E1,1E0,4.1E1,2E0,2E0,3E0,1E0,3.43E2,5.545E3],"tree_param":{"num_deleted":"0","num_feature":"10001","num_nodes":"101","size_leaf_vector":"0"}},{"base_weights":[-1.768088E-1,-1.5958254E-1,-1.8055928E-1,-1.6210012E-1,-2.024081E-2,-2.0827611E-1,-1.7785428E-1,-1.6392832E-1,-1.7607654E-2,-2.0822471E-1,5.5964794E-2,-2.1010843E-1,4.6295345E-2,-1.0502465E-1,-1.7917039E-1,-1.109696E-1,-1.6831397E-1,5.591104E-2,-7.039267E-2,-6.7125E-2,-1.49321845E-2,-7.844972E-2,1.5211195E-1,-2.1749368E-1,-1.548781E-1,-4.8367843E-2,1.3848224E-1,6.947079E-2,-1.2912683E-1,1.8999884E-1,-1.793885E-1,-1.6649905E-1,-2.262933E-2,-1.8426426E-1,-1.4565009E-1,-4.4861667E-2,1.2807748E-1,3.414701E-2,-6.831972E-2,1.733391E-1,-1.2208008E-2,-2.080309E-1,-2.9049498E-1,6.426337E-2,-1.630936E-1,7.956505E-3,5.0088566E-2,-9.815751E-2,1.2411101E-1,-1.5961945E-1,-1.11716855E-2,6.741785E-2,1.2872529E-2,6.5676674E-2,-1.7949226E-1,1.9041985E-2,-5.946598E-2,-4.6267636E-2,1.1259348E-2,-5.9016854E-2,-4.4051323E-2,-3.4274787E-2,-4.97183E-2,-3.436625E-2,1.7778487E-3,2.1763244E-3,5.6183983E-2,-8.8860635E-3,2.2030702E-2,1.8363195E-2,6.232078E-2,-7.0337005E-2,-5.602784E-2,-8.863894E-2,-2.5871517E-3,-2.9742196E-2,-6.224112E-2,-5.096786E-2,1.7557286E-2,5.0657365E-2,-1.5449975E-2,-3.4625188E-2,-7.256537E-2,-5.538642E-2,2.1154888E-2,-6.9845654E-2,-5.354545E-2],"categories":[],"categories_nodes":[],"categories_segments":[],"categories_sizes":[],"default_left":[0,0,0,0,0,0,0,0,0,0,0,0,0,0,0,0,0,0,0,0,0,0,0,0,0,0,0,0,0,0,0,0,0,0,0,0,0,0,0,0,0,0,0,0,0,0,0,0,0,0,0,0,0,0,0,0,0,0,0,0,0,0,0,0,0,0,0,0,0,0,0,0,0,0,0,0,0,0,0,0,0,0,0,0,0,0,0],"id":22,"left_children":[1,3,5,7,9,11,13,15,17,19,21,23,25,27,29,31,33,35,-1,-1,-1,37,39,41,43,-1,45,47,49,51,53,55,57,59,61,63,65,67,-1,69,-1,71,73,-1,75,-1,-1,77,79,81,83,-1,-1,-1,85,-1,-1,-1,-1,-1,-1,-1,-1,-1,-1,-1,-1,-1,-1,-1,-1,-1,-1,-1,-1,-1,-1,-1,-1,-1,-1,-1,-1,-1,-1,-1,-1],"loss_changes":[4.9456787E-1,5.078392E-1,4.6113586E-1,3.7512589E-1,3.984398E-1,2.8260422E-1,5.6214905E-1,3.0950546E-1,3.1628495E-1,8.5430145E-3,2.7040458E-1,2.0329857E-1,1.1798077E-1,4.7159982E-1,5.133209E-1,5.4074144E-1,4.4419098E-1,1.1483189E-1,0E0,0E0,0E0,1.5905504E-1,5.616623E-2,2.9187202E-1,2.5325882E-1,0E0,8.326262E-3,1.4041188E-1,3.471024E-1,1.0789588E-2,2.851715E-1,5.086361E-1,3.5413128E-1,3.2595253E-1,3.2340145E-1,2.5455575E-2,6.3018605E-2,1.7207151E-2,0E0,2.9709846E-2,0E0,2.119751E-1,7.58729E-2,0E0,1.8093121E-1,0E0,0E0,5.4901354E-2,9.513457E-2,2.5207734E-1,3.1056267E-1,0E0,0E0,0E0,2.7799988E-1,0E0,0E0,0E0,0E0,0E0,0E0,0E0,0E0,0E0,0E0,0E0,0E0,0E0,0E0,0E0,0E0,0E0,0E0,0E0,0E0,0E0,0E0,0E0,0E0,0E0,0E0,0E0,0E0,0E0,0E0,0E0,0E0],"parents":[2147483647,0,0,1,1,2,2,3,3,4,4,5,5,6,6,7,7,8,8,9,9,10,10,11,11,12,12,13,13,14,14,15,15,16,16,17,17,21,21,22,22,23,23,24,24,26,26,27,27,28,28,29,29,30,30,31,31,32,32,33,33,34,34,35,35,36,36,37,37,39,39,41,41,42,42,44,44,47,47,48,48,49,49,50,50,54,54],"right_children":[2,4,6,8,10,12,14,16,18,20,22,24,26,28,30,32,34,36,-1,-1,-1,38,40,42,44,-1,46,48,50,52,54,56,58,60,62,64,66,68,-1,70,-1,72,74,-1,76,-1,-1,78,80,82,84,-1,-1,-1,86,-1,-1,-1,-1,-1,-1,-1,-1,-1,-1,-1,-1,-1,-1,-1,-1,-1,-1,-1,-1,-1,-1,-1,-1,-1,-1,-1,-1,-1,-1,-1,-1],"split_conditions":[7.5983715E-1,7.4450016E-1,4.6529737E-1,4.993866E-1,8.541982E0,2.3536112E0,4.8103133E-1,3.4642916E-2,5.740261E-1,4.5504924E-2,3.3187483E-2,6.406733E-1,1.4318202E-1,1.3134849E-1,1.3402282E1,2.3655032E2,4.473435E-2,3.1168944E-1,-7.039267E-2,-6.7125E-2,-1.49321845E-2,6.311539E-1,8.1826353E-1,8.734132E-1,8.026594E-1,-4.8367843E-2,5.21804E-3,1.2510085E-2,1.2748726E-1,2.3154537E-1,8.105036E-1,1.6728045E1,6.576139E-3,4.9766182E1,5.1548165E-1,3.9038093E0,1.1865624E0,6.723241E-1,-6.831972E-2,7.694098E-1,-1.2208008E-2,7.527807E-1,1.5163878E2,6.426337E-2,3.3310246E-1,7.956505E-3,5.0088566E-2,7.809558E-3,6.2254465E-1,5.5826125E0,8.128589E-1,6.741785E-2,1.2872529E-2,6.5676674E-2,2.2986168E1,1.9041985E-2,-5.946598E-2,-4.6267636E-2,1.1259348E-2,-5.9016854E-2,-4.4051323E-2,-3.4274787E-2,-4.97183E-2,-3.436625E-2,1.7778487E-3,2.1763244E-3,5.6183983E-2,-8.8860635E-3,2.2030702E-2,1.8363195E-2,6.232078E-2,-7.0337005E-2,-5.602784E-2,-8.863894E-2,-2.5871517E-3,-2.9742196E-2,-6.224112E-2,-5.096786E-2,1.7557286E-2,5.0657365E-2,-1.5449975E-2,-3.4625188E-2,-7.256537E-2,-5.538642E-2,2.1154888E-2,-6.9845654E-2,-5.354545E-2],"split_indices":[30,29,17,15,325,28,17,3,17,1,1,21,8,6,661,8174,1,9,0,0,0,22,31,27,32,0,0,1,2,6,35,786,1,1496,24,158,53,26,0,32,0,28,1490,0,13,0,0,0,21,168,30,0,0,0,954,0,0,0,0,0,0,0,0,0,0,0,0,0,0,0,0,0,0,0,0,0,0,0,0,0,0,0,0,0,0,0,0],"split_type":[0,0,0,0,0,0,0,0,0,0,0,0,0,0,0,0,0,0,0,0,0,0,0,0,0,0,0,0,0,0,0,0,0,0,0,0,0,0,0,0,0,0,0,0,0,0,0,0,0,0,0,0,0,0,0,0,0,0,0,0,0,0,0,0,0,0,0,0,0,0,0,0,0,0,0,0,0,0,0,0,0,0,0,0,0,0,0],"sum_hessian":[8.1E3,1.456E3,6.644E3,1.43E3,2.6E1,5.84E2,6.06E3,1.412E3,1.8E1,7E0,1.9E1,5.8E2,4E0,1.09E2,5.951E3,1.1E2,1.302E3,1.4E1,4E0,6E0,1E0,8E0,1.1E1,5.09E2,7.1E1,1E0,3E0,1.3E1,9.6E1,3E0,5.948E3,6.7E1,4.3E1,7.6E2,5.42E2,6E0,8E0,5E0,3E0,1E1,1E0,4.54E2,5.5E1,1E0,7E1,1E0,2E0,3E0,1E1,7.6E1,2E1,2E0,1E0,1E0,5.947E3,8E0,5.9E1,1.3E1,3E1,5.67E2,1.93E2,2.14E2,3.28E2,2E0,4E0,3E0,5E0,2E0,3E0,3E0,7E0,1.98E2,2.56E2,5.4E1,1E0,3E1,4E1,2E0,1E0,8E0,2E0,5.1E1,2.5E1,6E0,1.4E1,1.06E2,5.841E3],"tree_param":{"num_deleted":"0","num_feature":"10001","num_nodes":"87","size_leaf_vector":"0"}},{"base_weights":[-1.7671455E-1,-1.8377522E-1,-1.716025E-1,-1.7722836E-1,-2.088426E-1,-4.7410574E-2,-1.7249462E-1,-1.7826015E-1,-5.5058308E-2,9.24605E-2,-2.1115662E-1,-1.7263846E-1,6.713072E-2,1.2466431E-2,-1.7297277E-1,-1.7882419E-1,8.376219E-3,-1.9550022E-1,5.9221648E-2,-1.2284617E-2,4.4371266E-2,-2.1366796E-1,2.8889047E-3,-2.207586E-1,3.765251E-2,1.5904126E-1,-5.266333E-2,-1.0389694E-1,1.6553985E-1,7.125384E-2,-1.7330238E-1,-2.4281467E-1,-1.7707846E-1,1.2488967E-1,-5.0546404E-2,5.1243305E-3,-8.1412494E-2,-6.817286E-2,1.2590264E-1,-7.3253904E-3,1.7973125E-3,-2.4950449E-1,-1.9678412E-1,-9.4337724E-2,4.440199E-2,-3.070294E-1,-4.0180843E-2,3.2379907E-2,6.803804E-2,6.4161286E-2,-1.5895528E-1,-5.7591446E-2,-1.2657916E-2,-5.8959424E-4,5.983019E-2,1.8810138E-1,-4.4173002E-2,-2.9167426E-1,-1.7265262E-1,-7.374416E-2,-6.2802676E-3,-3.4088507E-2,-5.373109E-2,8.068809E-3,6.41754E-2,1.526274E-2,-8.125428E-3,6.9904245E-2,1.9292502E-2,-1.5564499E-2,-7.706744E-2,-5.233196E-2,-6.8185836E-2,-3.9093487E-2,-4.477987E-3,-1.4656958E-2,-9.908604E-2,-2.776441E-2,3.3248268E-2,-4.004842E-3,2.0194797E-2,2.2233142E-2,3.6546797E-3,-5.396749E-2,-1.1281479E-2,4.9555423E-3,-1.12845E-2,9.157714E-3,6.595916E-2,-1.30384825E-2,-9.017295E-2,1.5964858E-3,-5.189992E-2],"categories":[],"categories_nodes":[],"categories_segments":[],"categories_sizes":[],"default_left":[0,0,0,0,0,0,0,0,0,0,0,0,0,0,0,0,0,0,0,0,0,0,0,0,0,0,0,0,0,0,0,0,0,0,0,0,0,0,0,0,0,0,0,0,0,0,0,0,0,0,0,0,0,0,0,0,0,0,0,0,0,0,0,0,0,0,0,0,0,0,0,0,0,0,0,0,0,0,0,0,0,0,0,0,0,0,0,0,0,0,0,0,0],"id":23,"left_children":[1,3,5,7,9,11,13,15,17,19,21,23,25,27,29,31,33,35,37,39,-1,41,43,45,-1,47,49,51,53,55,57,59,61,63,-1,65,-1,-1,67,-1,-1,69,71,73,-1,75,77,79,-1,81,83,-1,85,-1,-1,87,-1,89,91,-1,-1,-1,-1,-1,-1,-1,-1,-1,-1,-1,-1,-1,-1,-1,-1,-1,-1,-1,-1,-1,-1,-1,-1,-1,-1,-1,-1,-1,-1,-1,-1,-1,-1],"loss_changes":[2.6087952E-1,5.189972E-1,5.140991E-1,3.2964325E-1,5.0478745E-1,5.136211E-1,4.1604614E-1,2.825699E-1,3.9677054E-1,3.6661696E-2,3.7205887E-1,2.7160382E-1,2.17572E-1,2.4875689E-1,3.881073E-1,2.5437927E-1,2.0650597E-1,1.6883633E-1,2.9603475E-1,8.115239E-4,0E0,3.6415672E-1,1.4094637E-1,2.2134215E-1,0E0,8.7053865E-2,1.21956415E-1,6.1856724E-2,3.4456566E-2,2.0641267E-1,3.0822754E-1,4.0105343E-2,3.130951E-1,4.6591707E-2,0E0,7.2724107E-3,0E0,0E0,6.4184755E-2,0E0,0E0,3.0053425E-1,2.7999878E-1,1.51952505E-2,0E0,4.3907523E-2,5.7704188E-2,8.8866595E-3,0E0,1.6829111E-3,5.938351E-3,0E0,4.2621307E-3,0E0,0E0,1.8313482E-2,0E0,3.9967775E-2,2.875061E-1,0E0,0E0,0E0,0E0,0E0,0E0,0E0,0E0,0E0,0E0,0E0,0E0,0E0,0E0,0E0,0E0,0E0,0E0,0E0,0E0,0E0,0E0,0E0,0E0,0E0,0E0,0E0,0E0,0E0,0E0,0E0,0E0,0E0,0E0],"parents":[2147483647,0,0,1,1,2,2,3,3,4,4,5,5,6,6,7,7,8,8,9,9,10,10,11,11,12,12,13,13,14,14,15,15,16,16,17,17,18,18,19,19,21,21,22,22,23,23,25,25,26,26,27,27,28,28,29,29,30,30,31,31,32,32,33,33,35,35,38,38,41,41,42,42,43,43,45,45,46,46,47,47,49,49,50,50,52,52,55,55,57,57,58,58],"right_children":[2,4,6,8,10,12,14,16,18,20,22,24,26,28,30,32,34,36,38,40,-1,42,44,46,-1,48,50,52,54,56,58,60,62,64,-1,66,-1,-1,68,-1,-1,70,72,74,-1,76,78,80,-1,82,84,-1,86,-1,-1,88,-1,90,92,-1,-1,-1,-1,-1,-1,-1,-1,-1,-1,-1,-1,-1,-1,-1,-1,-1,-1,-1,-1,-1,-1,-1,-1,-1,-1,-1,-1,-1,-1,-1,-1,-1,-1],"split_conditions":[9.4545E1,4.9197796E1,9.307788E1,3.807539E1,8.1655866E-1,9.053239E1,8.6643135E1,7.644878E1,4.5052322E1,1.1376794E-3,1.9080504E2,1.18004516E-1,1.3610727E0,8.507693E1,5.2707596E1,1.8877734E-1,3.6330616E-1,3.38133E1,3.931948E0,9.649422E-4,4.4371266E-2,6.9473374E-1,1.1108214E1,9.94934E1,3.765251E-2,1.4249946E-2,9.153283E1,8.699109E1,6.316191E-3,1.5634815E1,8.7740524E1,5.9335155E1,7.385983E0,6.2447853E0,-5.0546404E-2,2.2168965E-3,-8.1412494E-2,-6.817286E-2,4.5233837E1,-7.3253904E-3,1.7973125E-3,3.0275686E0,1.612391E1,1.5421877E-2,4.440199E-2,9.4332855E1,5.6140275E0,7.8780934E-2,6.803804E-2,1.6520621E-1,6.131044E-1,-5.7591446E-2,4.524592E-2,-5.8959424E-4,5.983019E-2,2.3905309E-2,-4.4173002E-2,2.1367815E-1,9.950372E1,-7.374416E-2,-6.2802676E-3,-3.4088507E-2,-5.373109E-2,8.068809E-3,6.41754E-2,1.526274E-2,-8.125428E-3,6.9904245E-2,1.9292502E-2,-1.5564499E-2,-7.706744E-2,-5.233196E-2,-6.8185836E-2,-3.9093487E-2,-4.477987E-3,-1.4656958E-2,-9.908604E-2,-2.776441E-2,3.3248268E-2,-4.004842E-3,2.0194797E-2,2.2233142E-2,3.6546797E-3,-5.396749E-2,-1.1281479E-2,4.9555423E-3,-1.12845E-2,9.157714E-3,6.595916E-2,-1.30384825E-2,-9.017295E-2,1.5964858E-3,-5.189992E-2],"split_indices":[2614,1485,2561,1099,44,2504,2463,2174,1348,0,4837,1,35,2439,1646,13,11,954,143,0,0,23,273,2714,0,0,2521,2512,0,394,2430,1798,361,205,0,0,0,0,1353,0,0,144,439,0,0,2609,96,3,0,1,9,0,0,0,0,0,0,13,2767,0,0,0,0,0,0,0,0,0,0,0,0,0,0,0,0,0,0,0,0,0,0,0,0,0,0,0,0,0,0,0,0,0,0],"split_type":[0,0,0,0,0,0,0,0,0,0,0,0,0,0,0,0,0,0,0,0,0,0,0,0,0,0,0,0,0,0,0,0,0,0,0,0,0,0,0,0,0,0,0,0,0,0,0,0,0,0,0,0,0,0,0,0,0,0,0,0,0,0,0,0,0,0,0,0,0,0,0,0,0,0,0,0,0,0,0,0,0,0,0,0,0,0,0,0,0,0,0,0,0],"sum_hessian":[8.1E3,3.387E3,4.713E3,2.692E3,6.95E2,3.4E1,4.679E3,2.669E3,2.3E1,5E0,6.9E2,1.6E1,1.8E1,1.2E1,4.667E3,2.661E3,8E0,1E1,1.3E1,2E0,3E0,6.82E2,8E0,1.4E1,2E0,1E1,8E0,7E0,5E0,6E0,4.661E3,6.7E1,2.594E3,5E0,3E0,3E0,7E0,2E0,1.1E1,1E0,1E0,2.14E2,4.68E2,5E0,3E0,9E0,5E0,4E0,6E0,4E0,4E0,3E0,4E0,1E0,4E0,4E0,2E0,2.3E1,4.638E3,6.6E1,1E0,8.2E1,2.512E3,3E0,2E0,1E0,2E0,3E0,8E0,8E0,2.06E2,2.74E2,1.94E2,3E0,2E0,1E0,8E0,4E0,1E0,2E0,2E0,3E0,1E0,3E0,1E0,2E0,2E0,1E0,3E0,1E0,2.2E1,9E0,4.629E3],"tree_param":{"num_deleted":"0","num_feature":"10001","num_nodes":"93","size_leaf_vector":"0"}},{"base_weights":[-1.7528589E-1,-2.5571525E-1,-1.746136E-1,-1.2175362E-1,-2.6727486E-1,-2.3554394E-1,-1.7393269E-1,-4.6336826E-2,-7.999492E-3,-8.819953E-4,-2.7178165E-1,-7.200996E-2,-2.4690886E-1,7.582255E-2,-1.7419375E-1,-1.0996476E-3,-2.7642113E-1,1.4429803E-1,-5.621783E-2,-2.66972E-1,-1.3325602E-1,-3.7050135E-2,4.1530173E-2,-2.8517934E-2,-1.7455783E-1,-3.0024475E-1,-1.8969873E-1,1.2032712E-2,5.2901402E-2,-2.6544232E-3,-2.7506402E-1,-1.6908129E-1,-1.4224946E-3,-1.8584467E-2,5.646618E-3,5.9643082E-2,-1.7923497E-1,-1.7493358E-1,-8.2216606E-2,-9.150347E-2,-1.5005779E-2,1.0789651E-2,-9.1838226E-2,6.4228894E-3,-7.61738E-3,-8.3937116E-2,4.113311E-3,-1.898597E-2,-5.566782E-2,-1.8720964E-2,2.722795E-2,3.0070309E-2,-3.6780916E-2,-6.641136E-2,-2.452678E-2,-2.2548847E-2,-5.2553266E-2,2.4018226E-2,-4.056821E-2],"categories":[],"categories_nodes":[],"categories_segments":[],"categories_sizes":[],"default_left":[0,0,0,0,0,0,0,0,0,0,0,0,0,0,0,0,0,0,0,0,0,0,0,0,0,0,0,0,0,0,0,0,0,0,0,0,0,0,0,0,0,0,0,0,0,0,0,0,0,0,0,0,0,0,0,0,0,0,0],"id":24,"left_children":[1,3,5,7,9,11,13,-1,-1,-1,15,17,19,21,23,-1,25,27,-1,29,31,33,-1,35,37,39,41,-1,-1,43,45,47,49,-1,-1,51,53,55,57,-1,-1,-1,-1,-1,-1,-1,-1,-1,-1,-1,-1,-1,-1,-1,-1,-1,-1,-1,-1],"loss_changes":[3.9338684E-1,6.811333E-2,2.9248047E-1,1.7648853E-2,6.948805E-2,1.4205551E-1,5.3167725E-1,0E0,0E0,0E0,7.113409E-2,2.0174795E-1,1.4684343E-1,6.8733E-2,4.1635132E-1,0E0,6.080818E-2,2.9418878E-3,0E0,1.4257336E-1,6.588109E-2,6.730436E-3,0E0,2.8972483E-1,2.6055908E-1,3.6033154E-2,4.051168E-1,0E0,0E0,2.1850395E-3,9.255123E-2,7.432878E-3,